-0.007541208527982235,0.0979786068201065,-0.1760440170764923,-0.16155044734477997,-0.09195495396852493,0.04490071162581444,-0.015294662676751614,0.14213159680366516,-0.03609948232769966,0.035117506980895996,-0.06918775290250778,-0.05112066492438316,-0.20703266561031342,-0.15234063565731049,-0.10147613286972046,-0.000343878724379465,0.06854117661714554,0.10445606708526611,-0.1535778045654297,-0.10508696734905243,0.06717776507139206,0.15788988769054413,-0.05193379893898964,0.13491876423358917,-0.04646989330649376,-0.002399727702140808,0.15122441947460175,-0.2184436321258545,-0.15936286747455597,-0.08024812489748001,-0.10465645045042038,0.14079232513904572,-0.16175420582294464,-0.12220635265111923,-0.16562610864639282,-0.21402008831501007,-0.1443570852279663,0.1457577347755432,0.06661507487297058,0.07569707185029984,-0.012065190821886063,-0.12231680750846863,0.01691424287855625,-0.2019742727279663,-0.1609572470188141,-0.11726807057857513,0.11330194026231766,0.10574277490377426,-0.10092826187610626,-0.02226077765226364,0.14058491587638855,0.21163323521614075,0.0940292626619339,0.04206904396414757,0.1468409150838852,-0.10487213730812073,0.05006738379597664,-0.13946647942066193,-0.12224660068750381,-0.0878181979060173,0.10266020148992538,0.0949084535241127,-0.09920956939458847,0.08142203837633133,0.13078460097312927,-0.011403322219848633,0.026343533769249916,0.07160249352455139,0.15330971777439117,0.22021903097629547,-0.13862444460391998,-0.051682498306035995,0.10721135139465332,0.19742217659950256,0.20306886732578278,0.17342306673526764,0.035811904817819595,-0.17988164722919464,0.006253068335354328,-0.14189936220645905,-0.18774719536304474,0.17230723798274994,0.14273826777935028,-0.21406221389770508,0.01556368451565504,-0.03684723749756813,-0.03895819932222366,-0.10303487628698349,0.05561528354883194,-0.14519824087619781,0.06799087673425674,0.09192891418933868,0.1266414076089859,0.04889813810586929,-0.22886735200881958,-0.13552600145339966,0.08836556226015091,0.023342767730355263,-0.1821645349264145,-0.14547938108444214,0.17055000364780426,0.11046930402517319,-0.11663823574781418,-0.0803435742855072,-0.2153293937444687,-0.02474411390721798,-0.17798160016536713,-0.18478016555309296,-0.03837770223617554,0.00828996580094099,-0.10588613897562027,0.088677778840065,-0.14960424602031708,0.15859314799308777,0.1199151799082756,-0.19117258489131927,-0.07518511265516281,-0.013894682750105858,0.01192284282296896,0.03371486812829971,0.05807000398635864,-0.008664458058774471,-0.11517559736967087,0.07965893298387527,-0.20318002998828888