-0.03067535161972046,-0.017802758142352104,-0.029750768095254898,-0.022870555520057678,0.02261826954782009,0.0256330743432045,-0.03465335816144943,-0.011344419792294502,0.014109784737229347,0.01458860095590353,-0.00331201683729887,0.006246278993785381,-0.011887467466294765,-0.03365505114197731,-0.0074616847559809685,-0.022668885067105293,0.036695245653390884,0.030396131798624992,-0.01329913828521967,0.025759540498256683,0.028706494718790054,0.03110475465655327,0.02918006293475628,-0.024413712322711945,0.035516370087862015,0.03751899302005768,-8.751226414460689e-05,0.020151600241661072,-0.013259456492960453,0.03204740211367607,-0.025666136294603348,-0.022722456604242325,0.012888584285974503,-0.020434468984603882,-0.013767720200121403,0.010656541213393211,0.018009480088949203,0.02216150425374508,0.024620531126856804,0.020809831097722054,-0.03421788662672043,0.01021181233227253,-0.029490984976291656,0.0124902855604887,0.006630926392972469,0.029849791899323463,0.02713589556515217,0.03413983806967735,-0.014359778724610806,-0.029873894527554512,0.03343462198972702,-0.023644916713237762,0.008119624108076096,0.002797635504975915,0.00411381246522069,0.019497400149703026,0.017859704792499542,-0.00733976112678647,-0.007020191755145788,-0.037587083876132965,-0.025709139183163643,-7.94368825154379e-05,0.02483077347278595,-0.0013088242849335074,0.015643669292330742,-0.028444884344935417,-0.031232615932822227,0.01615249551832676,0.02244626171886921,-0.001412850571796298,0.03060980513691902,0.008761832490563393,0.021720970049500465,0.0074691977351903915,0.03889159858226776,-0.03739443048834801,-0.0036201397888362408,-0.019419487565755844,-0.022799720987677574,0.017669884487986565,-0.0066544609144330025,-0.0026902793906629086,0.008848213590681553,0.03413119539618492,-0.038753241300582886,-0.009851813316345215,0.00598965073004365,0.01746947318315506,-0.022265726700425148,-0.032619375735521317,-0.012773241847753525,-0.022270340472459793,-0.040084049105644226,-0.022481746971607208,-0.014834150671958923,0.010174879804253578,-0.01812724955379963,-0.02301698923110962,-0.02950996719300747,-0.013508853502571583