-0.007243562955409288,0.007342533674091101,-0.022249575704336166,-0.0017248491058126092,0.02451370470225811,-0.003482720348984003,0.000985225779004395,-0.002915831282734871,0.006958595477044582,0.021777242422103882,0.03242650255560875,0.02174847386777401,0.03250255063176155,-0.0024418283719569445,-0.030692093074321747,-0.01618032343685627,0.02331242524087429,-0.00020019247313030064,-0.01694376952946186,-0.026094790548086166,-0.03192935138940811,-0.02881285734474659,-0.0069053638726472855,0.01878545433282852,0.018528638407588005,-0.032950080931186676,0.021366361528635025,-0.02672918699681759,-0.00719613628461957,-0.013875619508326054,-0.006603316403925419,-0.006638422608375549,-0.03050270304083824,-0.029381008818745613,-0.005310696084052324,0.0004653013893403113,-0.01552102155983448,0.012912550009787083,-0.03075079619884491,-0.0022743381559848785,0.030126076191663742,-0.013891973532736301,0.030850820243358612,0.012360365130007267,-0.03081922046840191,0.021820610389113426,-0.00395544059574604,-0.015411211177706718,0.027188677340745926,-0.02769572101533413,0.003679244313389063,-0.007128851488232613,0.024462126195430756,0.009618410840630531,0.0165394339710474,0.012120134197175503,-0.008152584545314312,-0.007131651975214481,-0.027885068207979202,0.018762754276394844,0.027186742052435875,0.02328494004905224,-0.024169206619262695,0.0015398001996800303,-0.024077339097857475,-0.01878730021417141,-0.019845591858029366,0.011817625723779202,-0.020159751176834106,-0.0005177349084988236,0.0012721848906949162,0.022401563823223114,-0.02538456954061985,-0.023309096693992615,-0.01987367495894432,0.023955347016453743,-0.012279528193175793,0.028876259922981262,0.012404507957398891,0.004405034705996513,-0.00011664899648167193,-0.006321892142295837,0.0045982287265360355,-0.008143839426338673,-8.148918277584016e-05,0.004693910945206881,-0.02636844478547573,-0.017664140090346336,0.027707593515515327,-0.02774033509194851,-0.002428946550935507,0.033866338431835175,0.012409963645040989,0.0011225183261558414,-0.028828812763094902,0.01755526103079319,-0.024348368868231773,-0.009570918045938015,-0.011015794239938259,-0.004681152757257223,0.0007119338843040168,0.028361884877085686,0.004310480784624815,0.03066408447921276,0.02095291018486023,-0.021593062207102776,0.015567285008728504,-0.02317199669778347,-0.014058110304176807,0.010289939120411873,0.011528542265295982,0.02594033069908619,-0.01071582268923521,0.00038402352947741747,0.017717767506837845,-0.033059410750865936,0.024756502360105515,-0.02825179509818554,0.0004840343608520925,-0.005732814781367779,-0.017301620915532112,0.005126202944666147,0.02871251106262207,-0.00967167317867279,-0.019992774352431297,-0.012393316254019737,-0.03374917432665825,0.015484094619750977,-0.016406968235969543,-0.02279234491288662,-0.019672691822052002,0.019674628973007202,0.018035713583230972,0.026036227121949196,0.012742781080305576,-0.010514910332858562,-0.008806920610368252,0.010576227679848671,0.028272127732634544,0.009353894740343094,-0.01617714948952198,-0.016055122017860413,-0.03230421990156174,0.007420584559440613,-0.019165273755788803,-0.030492844060063362,0.029669303447008133,-0.022330308333039284,-0.0036637005396187305,0.009898905642330647,0.0011497213272377849,-0.022977419197559357,-0.027656959369778633,0.02727941982448101,0.005598987452685833,0.028406664729118347,-0.011434147134423256,0.010108104906976223,-0.007772502489387989,-0.0015198817709460855,-0.020828858017921448,0.011497470550239086,0.010798061266541481,-0.000655579729937017,-0.007622743956744671,-0.02104688622057438,0.023683074861764908,-0.025429299101233482,0.014042823575437069,-0.01149287074804306,-0.01649361476302147,0.00615266477689147,-0.01775931753218174,0.00788232870399952,0.006727391388267279,-0.025364305824041367,0.0057363626547157764,0.014611467719078064,0.013570046052336693,-0.004287539981305599,-0.02802540361881256,-0.005264043342322111,0.011886108666658401,-0.012471471913158894,0.012992198579013348,0.022772731259465218,-0.01787126250565052,0.0003487121721263975,0.014215259812772274,0.0027799836825579405,0.003010893240571022,0.004406567197293043,-0.0268033929169178,0.0027308508288115263,0.023694880306720734,0.030827583745121956,0.020114358514547348,0.004600586835294962,0.015947937965393066,-0.01665537804365158,-0.02834981679916382,-0.02929062768816948,0.03441706299781799,0.021968016400933266,-0.02347150631248951,0.013398461043834686,0.025787819176912308,0.03416633978486061,0.029915785416960716,0.02651982381939888,-0.0078050619922578335,-0.012036938220262527,0.02805153839290142,0.019139964133501053,-0.020385008305311203,0.03085777722299099,0.01633727177977562,0.018430864438414574,-0.021615339443087578,0.009703585878014565,-0.012025188654661179,0.02673596329987049,-0.00611253222450614,0.01338992826640606,0.00608270475640893,0.014684910885989666,-0.011447034776210785,0.016883673146367073,-0.023579800501465797,0.007812366355210543,-0.023217791691422462,-0.033887676894664764,-0.027535121887922287,0.026998093351721764,0.01851850003004074,0.03214286267757416,0.027502961456775665,-0.030237393453717232,-0.02292858622968197,-0.005195247009396553,-0.021329574286937714,0.024295657873153687,-0.02572733163833618,-0.01664486899971962,-0.03301933780312538,-0.019380705431103706,0.028147444128990173,0.028015384450554848,0.024530300870537758,0.02652708999812603,0.030893558636307716,-0.008014391176402569,0.015918951481580734,0.03100854903459549,0.01165484543889761,0.03487103432416916,0.018374262377619743,0.021561505272984505,-0.011835695244371891,0.01646348647773266,0.003938981797546148,-0.008139838464558125,-0.019152995198965073,-0.01839558221399784,-0.025062941014766693,0.02367939054965973,0.024565402418375015,-0.0027416376397013664,-0.018656598404049873,0.02727423794567585,0.022313762456178665,0.00274062086828053,-0.016106490045785904,0.031440369784832,0.013996263965964317,-0.025790058076381683,0.033782925456762314,0.026873014867305756,-0.011822681874036789,0.019713589921593666,-0.018642626702785492,-0.004314852878451347,0.030043095350265503,0.0018107305513694882,-0.024119587615132332,-0.01142651867121458,-0.009277165867388248,-0.0066043538972735405,0.0033578851725906134,0.03216233104467392,0.0023607746697962284,-0.020448442548513412,0.002557982224971056,0.01733546145260334,0.017872048541903496,-0.030837250873446465,-0.006020247004926205,-0.02542361058294773,-0.014596191234886646,0.012329661287367344,-0.024295656010508537,0.012640572153031826,0.02889946475625038,0.0021903221495449543,-0.022411100566387177,-0.01153527945280075,0.007933656685054302,-0.025892287492752075,0.017109129577875137,-0.031083332374691963,-0.03289705142378807,-0.033229999244213104,-0.006931009236723185,0.02299807034432888,-0.03241165354847908,0.02815472148358822,-0.013617800548672676,0.010207179002463818,0.0014355926541611552,-0.030931590124964714,0.028301170095801353,0.018395569175481796,0.03397560864686966,0.0172813031822443,-0.02256835252046585,0.028551829978823662,0.0018483889289200306,0.01623651571571827,-0.027512388303875923,-0.009949546307325363,-0.033599697053432465,-0.013302684761583805,0.0074223922565579414,-0.026810480281710625,0.010896953754127026,0.01837039738893509,0.004773925058543682,-0.022876352071762085,-0.026500970125198364,-0.010535531677305698,0.015030919574201107,0.03375314176082611,0.019668882712721825,-0.00383898732252419,0.012069642543792725,-0.03341069445014,-0.029060887172818184,0.016067473217844963,-0.019317928701639175,0.01648818701505661,-0.024124626070261,-0.016924159601330757,-0.02815479226410389,0.017874201759696007,-0.003491184674203396,0.026249557733535767,0.021168209612369537,0.019308781251311302,0.0014871017774567008,-0.010316035710275173,-0.0073117101565003395,0.004560370929539204,0.016951166093349457,-0.023957207798957825,0.028721502050757408,-0.003690295619890094,-0.028617847710847855,-0.018593940883874893,0.030182525515556335,0.03133344277739525,-0.03162020444869995,0.02423662319779396,0.017067840322852135,0.020080648362636566,0.02882079780101776,-0.018466437235474586,0.010800453834235668,0.01401754654943943,-0.010051781311631203,0.011528498493134975,-0.009853320196270943,0.02137920632958412,-0.00932005699723959,-0.01226209569722414,0.008889158256351948,0.012037872336804867,-0.016933631151914597,0.0029261766467243433,0.019810155034065247,-0.003393680788576603,0.010433187708258629,-0.008181348443031311,0.012114492245018482,-0.02462131343781948,-0.01947823539376259,-0.017147846519947052,0.03171586990356445,-0.009227327071130276,-0.00043787091271951795,-0.016699250787496567,0.03412602096796036,0.0334150455892086,-0.02577867917716503,-0.02770509384572506,-0.025863731279969215,-0.00012286553101148456,-0.008170760236680508,-0.021335169672966003,-0.012537550181150436,0.0062607694417238235,-0.01694934256374836,0.008265404962003231,-0.007549639325588942,-0.01645703800022602,0.00475302804261446,0.02815174125134945,-0.023105809465050697,0.0016162199899554253,-0.012527155689895153,0.03491789102554321,-0.03175521269440651,-0.03274700790643692,0.03451244533061981,-0.02078022062778473,0.007386528421193361,-0.002184645738452673,-0.006938394159078598,-0.007575996685773134,0.021761901676654816,0.0016507244436070323,-0.03328408673405647,-0.019912200048565865,-0.010681572370231152,0.017462190240621567,-0.021249879151582718,0.03280895948410034,-0.00720969820395112,-0.0048761554062366486,0.027573786675930023,0.01734369806945324,0.029032224789261818,0.01980038918554783,-0.010359331965446472,-0.02268960140645504,-0.002447306178510189,0.02880365587770939,-0.010886691510677338,-0.030587175861001015,0.014874090440571308,0.03424430638551712,-0.009367316029965878,-0.02810441143810749,-0.03098491206765175,0.008600577712059021,-0.0025766193866729736,-0.017256246879696846,0.006903960835188627,0.012898197397589684,0.026954395696520805,0.027723919600248337,-0.0034392287489026785,-0.029750514775514603,-0.030785467475652695,0.032076187431812286,0.01516616903245449,0.014930011704564095,-0.02957334741950035,0.0316830649971962,0.03241744637489319,0.030894547700881958,-0.028886107727885246,-0.013258595019578934,-0.02385752461850643,0.03202294185757637,-0.01464884914457798,-0.01549147441983223,0.01802859641611576,-0.01580016501247883,-0.01682300493121147,-0.002980666933581233,-0.0032722812611609697,-0.026625981554389,0.028532611206173897,-0.015036055818200111,0.01218433678150177,0.02970438450574875,0.017171578481793404,0.00496866786852479,0.02921736054122448,0.004667851608246565,-0.015783503651618958,0.032365936785936356,0.008109163492918015,-0.033353596925735474,-0.00972056481987238,-0.02328062616288662,0.030009113252162933,-0.0056181056424975395,-0.031166261062026024,-0.002185047371312976,0.021429674699902534,0.00886016059666872,0.01081833429634571,0.003195035271346569,0.012764806859195232,-0.008317308500409126,-0.01358923502266407,-0.03195435553789139,-0.025751126930117607,0.014840026386082172,-0.020241059362888336,0.004905048757791519,0.010935834608972073,0.002520851558074355,-0.02205987460911274,0.03281243517994881,-0.01982480101287365,0.02815961465239525,-0.027188850566744804,-0.008212138898670673,0.018619071692228317,-0.01395809929817915,0.028750775381922722,-0.023562928661704063,-0.028763966634869576,-0.01535271480679512,0.00580877810716629,0.031743504106998444,-0.016227150335907936,0.0122639499604702,-0.008574546314775944,-0.007407348603010178,0.025159839540719986,-0.026490507647395134,0.0036609738599509,0.03219366818666458,-0.0048067630268633366,0.026555657386779785,-0.010356554761528969,0.027832593768835068,-0.03278743848204613,-0.004781363531947136,-0.006033638492226601,0.011051904410123825,0.01341952383518219,0.026271266862750053,-0.005073480773717165,-0.0013022387865930796,0.023469913750886917,-0.009309981018304825,0.03013676032423973,-0.02250000834465027,-0.003203687723726034,-0.001530632027424872,0.015195146203041077,0.02319272793829441,-0.00548525620251894,-0.028340870514512062,0.016955377534031868,0.010258059948682785,0.013819427229464054,-0.02101236581802368,0.022104617208242416,0.0327722392976284,0.0031616282649338245,-0.03152412548661232,0.024237191304564476,-0.025404082611203194,0.007748593110591173,0.004955572076141834,-0.01599535346031189,0.01192597858607769,-0.030564166605472565,0.007875281386077404,-0.021623020991683006,-0.0030779761727899313,0.004831858444958925,0.028913458809256554,-0.015843965113162994,0.0225970596075058,-0.004179100971668959,-0.01621170900762081,-0.02974533475935459,-0.031355563551187515,0.03342003747820854,-0.008508431725203991,0.0017620064318180084,0.009455375373363495,0.024284912273287773,0.0294321421533823,0.027540013194084167,-0.024919115006923676,-0.00485047185793519,-0.019848154857754707,-0.019203558564186096,0.008230754174292088,0.03214343264698982,-0.027378004044294357,0.020714333280920982,-0.01769285649061203,-0.006315387319773436,0.02825728990137577,-0.007607249077409506,0.00322140590287745,-0.023732680827379227,0.029824884608387947,-0.003840381046757102,-0.024712031707167625,0.010104961693286896,-0.024292582646012306,-0.02712138555943966,0.002096841810271144,0.027121467515826225,-0.009357444941997528,0.016961893066763878,0.02952040359377861,0.02328524924814701,-0.017567500472068787,-0.003431719960644841,-0.010608113370835781,-0.027323147282004356,2.7965143090113997e-05,0.025738269090652466,0.02882714942097664,0.0032022055238485336,0.007747689727693796,-0.014767956919968128,0.02614579349756241,-0.013759068213403225,-0.023213475942611694,0.0054789949208498,0.020659564062952995,-0.030757108703255653,0.03093692846596241,0.01229090429842472,-0.023958565667271614,-0.007355756126344204,0.02968582697212696,-0.026242274791002274,-0.010110356844961643,0.010941673070192337,-0.02962857484817505,0.01912923902273178,0.018095608800649643,0.02143077179789543,-0.02180451899766922,0.034069791436195374,-0.020273638889193535,0.03415263816714287,-0.03280927613377571,-0.030458718538284302,0.02102053165435791,0.003563505597412586,0.001774161122739315,-0.01883786916732788,-0.01419944129884243,-0.009953920729458332,-0.03323792293667793,0.0018030933570116758,0.0060623520985245705,-1.7178348571178503e-05,0.011058569885790348,0.03246687725186348,0.009107978083193302,-0.012502608820796013,-0.014050139114260674,-0.021903298795223236,-0.023759562522172928,-0.005518837831914425,-0.005993135739117861,0.015275836922228336,-0.014577672816812992,0.027278978377580643,-0.02398325316607952,0.00011219273437745869,0.030759017914533615,0.03407420963048935,-0.019747328013181686,0.006157888099551201,0.00410186592489481,-0.0159753430634737,-0.011749359779059887,0.009379369206726551,-0.023654310032725334,0.005767416674643755,0.01490860991179943,-0.013392611406743526,0.028479695320129395,-0.00218607927672565,0.015581972897052765,0.03393581509590149,-0.010392007417976856,0.018635237589478493,-0.00972721353173256,-0.004952356684952974,-0.005778898950666189,-0.0001297145790886134,-0.012703419663012028,0.008225829340517521,0.0014492524787783623,0.021784717217087746,-0.006849720608443022,0.003495318116620183,-0.012653646059334278,-0.02857416868209839,0.013916386291384697,0.004447377286851406,-0.013717899098992348,-0.011496028862893581,0.009420051239430904,-0.005745083559304476,0.02257084660232067,0.001973623875528574,0.01289821695536375,0.014922447502613068,-0.008325350470840931,0.014869208447635174,0.02532704919576645,0.0017023286782205105,0.006696025375276804,0.0012551124673336744,0.024080537259578705,-0.014015446417033672,-0.017899058759212494,0.01497980672866106,-0.02984781563282013,0.00046210753498598933,-0.01571725681424141,0.022640567272901535,-0.031766459345817566,0.02082769013941288,0.03394067659974098,0.006918809842318296,-0.0021446573082357645,0.03360782936215401,-0.01423581037670374,-0.0022167344577610493,-0.01479855366051197,-0.004798670765012503,0.007427627686411142,0.004633673932403326,-0.006391571369022131,-0.03411565721035004,0.0018898150883615017,-0.0007774028927087784,0.005390315316617489,0.026988711208105087,0.03399929776787758,-0.01978643797338009,-0.0019207749282941222,-0.013660803437232971,-0.0314343199133873,-0.024752821773290634,0.032173555344343185,0.020010119304060936,0.018456965684890747,0.01921660080552101,-0.02711019292473793,0.004331888630986214,0.033430956304073334,-0.018828073516488075,0.030456071719527245,0.00941502582281828,0.02451874129474163,-0.014247317798435688,0.015988076105713844,-0.030228113755583763,-0.0021046523470431566,0.011492058634757996,0.010353876277804375,0.028870748355984688,0.035041529685258865,0.03158208355307579,0.022960737347602844,0.02506927400827408,-0.003692322876304388,-0.026146311312913895,-0.012225719168782234,-0.003569910768419504,-0.018404953181743622,0.01754762977361679,0.012065030634403229,0.0056139021180570126,0.0088342959061265,0.03108442947268486,0.012675635516643524,-0.029606744647026062,-0.024386944249272346,0.015820186585187912,0.005519977770745754,0.01717798039317131,-0.03407638147473335,-0.03152690827846527,0.021037166938185692,0.02194790169596672,-0.03082619421184063,0.013253407552838326,-0.02663959003984928,0.025702614337205887,0.011458219960331917,0.034616339951753616,-0.03278985247015953,-0.03253553435206413,0.02329474315047264,0.030373437330126762,0.021001335233449936,0.022802872583270073,-0.028745926916599274,0.024862049147486687,-0.03214012458920479,0.007261853665113449,-0.02225685678422451,-0.012897176668047905,0.006438462994992733,-0.013247783295810223,-0.005231230985373259,-0.0323963537812233,-0.03222481161355972,0.013309895060956478,-0.014413597993552685,-0.020754769444465637,-0.013481960631906986,-0.02791472338140011,-0.027093155309557915,0.02090567722916603,0.01726149395108223,0.004440431948751211,-0.018705002963542938,0.011400298215448856,0.001571858418174088,-0.024381186813116074,0.007426303345710039,0.031206563115119934,-0.03357643261551857,-0.03396680951118469,0.0043129208497703075,0.02570296637713909,-0.020729759708046913,0.007595536764711142,0.0241280235350132,0.010634837672114372,0.007449701894074678,0.03419269621372223,0.022348416969180107,-0.019171403720974922,0.0029326791409403086,0.01744912564754486,0.030139250680804253,-0.034050874412059784,0.018498823046684265,-0.00995262898504734,-0.03351491689682007,0.007566408254206181,-0.018643654882907867,0.0048252069391310215,-0.02222782000899315,-0.025760656222701073,-0.0029255819972604513,-0.01151286717504263,0.019979488104581833,0.0029236802365630865,0.026670847088098526,0.006386491470038891,-0.011046862229704857,0.02309844270348549,0.0017935710493475199,0.006378548219799995,-0.011013545095920563,9.524761844659224e-05,-0.006602351553738117,-0.0029351625125855207,-0.02669651061296463,-0.0002346897090319544,-0.02841174043715,-0.007378423120826483,0.019815167412161827,-0.023841531947255135,-0.023162219673395157,-0.008410468697547913,-0.009382886812090874,0.005848621483892202,0.005703034810721874,0.017334459349513054,-0.023590203374624252,-0.0024414947256445885,0.019059322774410248,0.029449529945850372,-0.0026550546754151583,-0.019886614754796028,0.009663314558565617,0.01916598156094551,-0.021483315154910088,-0.019527440890669823,0.015534834004938602,-0.0021227446850389242,-0.03221318498253822,-0.019735991954803467,0.01382871251553297,-0.01173332054167986,0.023315250873565674,0.026739588007330894,0.004781367257237434,-0.0029871263541281223,-0.011444443836808205,-0.0021560206077992916,0.006489936728030443,-0.025604356080293655,-0.007809337694197893,-0.028384080156683922,0.02096523903310299,-0.021820155903697014,0.031116284430027008,-0.00907969195395708,-0.019779207184910774,0.016401290893554688,0.0048298886977136135,0.022981615737080574,0.013587452471256256,-0.03300517424941063,0.02181580290198326,-0.006147382780909538,-0.015101791359484196,0.02169087715446949,0.024915264919400215,-0.03011496178805828,-0.0031260945834219456,0.028258658945560455,0.01378341019153595,0.028974048793315887,-0.012118115089833736,-0.019198818132281303,0.02918086387217045,0.014310644939541817,0.03302444517612457,-0.0142969386652112,-0.021989300847053528,-0.004031769931316376,-0.03218478336930275,0.013518198393285275,0.025381695479154587,0.008752917870879173,-0.0031771657522767782,0.016787733882665634,-0.021814733743667603,0.03315117210149765,-0.034011706709861755,-0.03267226368188858,-0.008097830228507519,0.02790924347937107,0.0034072634298354387,0.013228741474449635,-0.024832982569932938,0.012386421672999859,-0.003920132294297218,0.013350751250982285,0.023788142949342728,0.01502121239900589,-0.0030215459410101175,-0.0020817320328205824,-0.021385762840509415,-0.012380355969071388,0.022200824692845345,-0.01371773611754179,0.021453365683555603,-0.013050082139670849,-0.00818551890552044,0.00021519993606489152,-0.03215938061475754,-0.0010202665580436587,-0.0033789179287850857,-0.002986327512189746,-0.006825349759310484,0.02699015848338604,0.025229383260011673,-0.0232040137052536,0.015877192839980125,-0.02663092128932476,-0.028293674811720848,0.010681256651878357,0.000167978010722436,-0.016639484092593193,-0.03379182517528534,-0.013169326819479465,0.011337649077177048,-0.03175002336502075,-0.03328258916735649,0.004309662617743015,-0.02466345764696598,-0.029981743544340134,-0.013107460923492908,-0.005115405190736055,-0.030547484755516052,-0.022539323195815086,0.0021567714866250753,-0.032803334295749664,-0.004855070263147354,-0.022129222750663757,-0.02379915490746498,0.013406479731202126,-0.026348454877734184,-0.025942103937268257,0.019481759518384933,0.006391283590346575,0.031284041702747345,-0.008733873255550861,-0.016243482008576393,-0.003511077957227826,-0.000636140292044729,0.025845104828476906,-0.034097690135240555,-0.0024648436810821295,0.01510417927056551,-0.01885802485048771,-0.01740294322371483,0.016522906720638275,-0.03277726471424103,0.008098314516246319,-0.026484070345759392,0.01699684001505375,-0.029249439015984535,0.021013477817177773,-0.03240084648132324,-0.028769399970769882,0.0004886675742454827,0.02694055438041687,-0.02929730899631977,-0.015261809341609478,0.030033065006136894,-0.005741560366004705,0.014164423570036888,-0.03290244936943054,-0.01074873749166727,-0.017400583252310753,0.02878406085073948,0.014142044819891453,-0.02502516657114029,0.005463465582579374,-0.0004255381354596466,-0.014063628390431404,-0.01953633688390255,-0.011354988440871239,0.026944927871227264,-0.02454794943332672,-0.02440520189702511,-0.010568159632384777,0.0005164805916137993,0.009177720174193382,0.000962490972597152,-0.00816639419645071,-0.020617831498384476,-0.006018389947712421,-0.013682305812835693,0.02766898088157177,-0.03330270200967789,-0.021857863292098045,-0.02790900319814682,-0.00640679057687521,0.02639167197048664,0.029597626999020576,-0.030040113255381584,-0.001468291156925261,0.02050006575882435,0.01563069224357605,0.02849849872291088,-0.0006558977183885872,-0.02285843901336193,0.02260882779955864,-0.011809599585831165,0.01748591847717762,-0.008785500191152096,0.01415503490716219,0.030379844829440117,0.031334370374679565,-0.0315496064722538,-0.022494623437523842,-0.013466279953718185,-0.0212720800191164,0.03302445262670517,-0.002905318746343255,-0.022706521674990654,-0.015318604186177254,-0.01912381686270237,0.013716550543904305,-0.029811697080731392,-0.031809959560632706,-0.03406751900911331,0.01394778024405241,0.01674489490687847,-0.02108008600771427,0.00887758657336235,0.025302277877926826,0.005045948550105095,-0.0072479574009776115,0.002488057827576995,-0.003682100912556052,0.017378123477101326,-0.022607332095503807,0.017632562667131424,0.019041212275624275,-0.020917750895023346,0.027498969808220863,0.033659812062978745,-0.013260777108371258,-0.009539617225527763,0.017096644267439842,-0.02679882012307644,0.013561884872615337,0.00809110701084137,0.021828027442097664,-0.029096204787492752,-0.02827363833785057,0.014979165978729725,0.011878788471221924,-0.03233698382973671,-0.018993090838193893,-0.031161945313215256,-0.02443145215511322,-0.015410283580422401,0.02830386534333229,-0.006697787903249264,0.019878290593624115,0.032567743211984634,0.015653174370527267,-0.031219827011227608,0.01618102379143238,0.012861235067248344,0.026257384568452835,-0.03355991467833519,0.021217675879597664,0.02806447073817253,-0.03181406110525131,0.003584815887734294,0.029370762407779694,-0.024368980899453163,0.011241255328059196,0.01486164703965187,0.008050251752138138,0.03318391740322113,0.028076736256480217,0.029430123046040535,-0.004245843272656202,0.028776293620467186,-0.03187558054924011,-0.018465915694832802,-0.007307221181690693,-0.009986690245568752,0.032205481082201004,0.016367176547646523,0.022069567814469337,0.02303198352456093,-0.025789577513933182,-0.0035484647378325462,0.004845130257308483,0.00878570880740881,0.017498668283224106,-0.013640127144753933,-0.010326206684112549,0.028617551550269127,-0.009084347635507584,-0.023285970091819763,0.023635786026716232,0.02351776324212551,-0.010428879410028458,-0.007041385397315025,-0.025339340791106224,-0.02870115637779236,0.012722904793918133,-0.014647066593170166,0.027216581627726555,-0.027392007410526276,-0.0047324118204414845,0.0007552817696705461,0.017699137330055237,0.028078507632017136,0.023538248613476753,0.01495604682713747,-0.01627265475690365,-0.02470218390226364,-0.030689608305692673,0.0016630933387205005,0.03316217288374901,-0.006501638796180487,-0.0014456339413300157,-0.024866335093975067,0.01048815157264471,0.021671032533049583,-0.033732663840055466,-0.024088511243462563,0.02532418817281723,0.0080635454505682,-0.002199089154601097,0.006046528462320566,-0.005251670256257057,-0.023935889825224876,-0.03197631984949112,0.02248213440179825,-0.004080013372004032,-0.012714670039713383,-0.00884166918694973,-0.0186629481613636,-0.010147281922399998,-0.02944634109735489,0.0254440326243639,0.013781010173261166,-0.01743163913488388,-0.011723041534423828,0.015363417565822601,-0.01265009306371212,0.009022975340485573,0.009405712597072124,-0.021553073078393936,0.008470142260193825,0.0019121665973216295,0.029765121638774872,-0.012323865666985512,-0.008817100897431374,0.02952413819730282,-0.02771121822297573,0.0027843613643199205,0.033108655363321304,-0.01523255743086338,0.03283153101801872,0.030327247455716133,0.031697530299425125,-0.0035744658671319485,0.03058730997145176,-0.015040268190205097,-0.011843346990644932,0.01239712629467249,0.006595333572477102,0.01916482299566269,0.033034663647413254,-0.021086854860186577,0.01823537051677704,0.011482673697173595,0.01801338791847229,0.01609436422586441,-0.01305049005895853,-0.027139632031321526,0.027535127475857735,-0.019613219425082207,0.021194348111748695,-0.033258531242609024,-0.006010434124618769,0.0007657692185603082,0.006374713499099016,0.002847990021109581,0.010806952603161335,-0.0038223566953092813,0.008351788856089115,0.03387850522994995,-0.021824128925800323,-0.00140669709071517,-0.013004771433770657,0.02910853549838066,0.027845315635204315,-0.0011351729044690728,-0.011645431630313396,-0.020745698362588882,0.02451941929757595,-0.002346817869693041,0.03220171481370926,0.019514255225658417,0.0301445834338665,0.02728366293013096,-0.021651577204465866,0.01014610007405281,-0.014868456870317459,0.016794458031654358,-0.0033044142182916403,0.0030858300160616636,-0.023390403017401695,-0.030569884926080704,0.012875028885900974,0.007937584072351456,0.003052800428122282,0.023495730012655258,-0.014359387569129467,0.011918317526578903,-0.019582491368055344,0.006791016086935997,-0.007310251705348492,0.023920150473713875,0.029979314655065536,0.02978438138961792,0.0015479789581149817,0.020161399617791176,-0.03417413681745529,-0.019863054156303406,0.006409376859664917,2.9068913136143237e-05,-0.02749164029955864,-0.01594747230410576,-0.016332801431417465,-0.03319605067372322,0.0031387845519930124,0.02337699569761753,0.01389713678508997,-0.016240037977695465,-0.03142203390598297,-0.02758869342505932,0.0008537571411579847,0.02410002425312996,-0.013458740897476673,-0.01887275092303753,-0.018954435363411903,-0.0038955414202064276,-0.03264729678630829,-0.03023756854236126,0.03355829045176506,-0.01633244939148426,-0.006172902416437864,-0.009166047908365726,-0.030056864023208618,-0.006000100634992123,0.010824998840689659,-0.012837948277592659,-0.0007545193657279015,-0.0005280698533169925,-0.03516291454434395,0.024623563513159752,0.027579480782151222,0.023290256038308144,-0.011238133534789085,0.017855407670140266,-0.032056234776973724,-0.008474467322230339,-0.0069640264846384525,-0.011995714157819748,0.014648589305579662,-0.015404592268168926,-0.004349562339484692,-0.0104821203276515,-0.03225752338767052,-0.005679374095052481,-0.029011962935328484,0.019904274493455887,0.018263857811689377,0.03202766180038452,-0.01149748358875513,0.0017256432911381125,0.006693500559777021,0.03418935462832451,0.03148481994867325,-0.0175972618162632,-0.02910069189965725,-0.030898384749889374,-0.01651618257164955,0.02873702347278595,0.011474269442260265,0.032987501472234726,0.02533866837620735,0.00048515142407268286,-0.021208086982369423,0.03338612988591194,0.027423834428191185,0.014798207208514214,-0.018704144284129143,0.0269006434828043,0.003051017178222537,0.022563358768820763,0.014248345047235489,0.018146390095353127,-0.030023153871297836,-0.01897495612502098,0.020502563565969467,-0.007136200554668903,-0.02976570464670658,0.031088542193174362,-0.0007527978159487247,0.02749379351735115,-0.026832979172468185,0.011692746542394161,-0.012945094145834446,-0.014370972290635109,-0.0071173617616295815,-0.012656798586249352,0.018733512610197067,-0.006508820224553347,0.025894777849316597,0.007715197280049324,-0.005385392811149359,-0.019769709557294846,-0.03143128380179405,-0.010165986604988575,-0.03181753307580948,-0.00627898657694459,0.0007043599616736174,-0.0021500345319509506,-0.0167767945677042,0.023743275552988052,0.019233573228120804,-0.0085472222417593,-0.013704695738852024,0.021357251331210136,0.02975117787718773,-0.03151324391365051,-0.007748941425234079,-0.0034071963746100664,-0.012105081230401993,0.02945817820727825,-0.004913125652819872,0.02903415448963642,0.00017914145428221673,-0.003751342184841633,-0.02009900100529194,-0.011588583700358868,0.011000270955264568,0.015333685092628002,-0.0014780478086322546,0.031911421567201614,-0.024279620498418808,0.013216589577496052,0.031068509444594383,-0.005739319603890181,0.02720663510262966,0.0005707745440304279,-0.025640100240707397,-0.01885167695581913,0.012680173851549625,-0.014568144455552101,0.0086176423355937,0.03337237611413002,0.01076394785195589,-0.003960457164794207,0.008498466573655605,-0.019627535715699196,-0.02847685106098652,-0.025679271668195724,-0.028699317947030067,0.007004540413618088,0.006664843298494816,-0.014371209777891636,-0.03310156241059303,0.018971892073750496,-0.020040243864059448,-0.006550552323460579,-0.0292383823543787,-0.019480347633361816,0.014395497739315033,-0.031618691980838776,-0.01948866993188858,0.02563570626080036,-0.017547158524394035,-0.014086331240832806,-0.009401717223227024,0.014704751782119274,-0.022427428513765335,0.0026319201570004225,0.013410256244242191,-0.0026029490400105715,0.005941247567534447,-0.025920642539858818,0.015564996749162674,0.012780409306287766,-0.004300849977880716,-0.02826884761452675,0.013991297222673893,0.022559626027941704,-0.006216841284185648,0.015681937336921692,0.011903708800673485,-0.014146655797958374,-0.0020604529418051243,0.033808790147304535,0.000246579060330987,-0.027198567986488342,-0.0025082917418330908,0.017000334337353706,-0.011136707849800587,-0.01753082498908043,0.02868453972041607,0.01774965040385723,-0.006290356628596783,0.0011399216018617153,-0.004178252071142197,0.00812937319278717,0.0011564254527911544,-0.020725438371300697,0.0063245841301977634,0.0008791451109573245,0.0021983785554766655,-0.013024379499256611,0.009005592204630375,-0.027018899098038673,0.010219411924481392,0.01824035868048668,-0.004503982607275248,-0.027415083721280098,-6.832544750068337e-05,-4.560569141176529e-05,-0.02959514409303665,-0.024209769442677498,0.03161909431219101,0.025564229115843773,0.01895061880350113,0.023772135376930237,0.013547820039093494,0.019571809098124504,0.02255520038306713,-0.008635452017188072,-0.005062459968030453,0.024342162534594536,-3.9659156755078584e-05,-0.022287800908088684,-0.0265328511595726,0.01911856047809124,0.028319602832198143,0.02655162289738655,0.005701642949134111,0.023710476234555244,-0.031186947599053383,-0.02461930923163891,-0.0332910418510437,0.02719583548605442,-0.00037575571332126856,-0.015762528404593468,0.011555974371731281,-0.012813062407076359,-0.021945491433143616,0.013180861249566078,0.00621422566473484,-0.024540511891245842,-0.022577034309506416,0.01598536968231201,0.02595541439950466,0.002726613311097026,-0.01724574714899063,0.016441866755485535,0.005892294924706221,-0.03000633791089058,-0.022218650206923485,0.007435850333422422,0.021114753559231758,-0.011035549454391003,0.016489917412400246,-0.021228555589914322,0.03267475962638855,0.024314481765031815,0.0063680061139166355,0.015204363502562046,0.011861974373459816,-0.020247215405106544,-0.0003779754915740341,0.009031742811203003,-0.007775639183819294,0.03275014087557793,-0.013239409774541855,-0.030610259622335434,-0.01637135073542595,-0.03184574842453003,0.028100283816456795,-0.015440065413713455,-0.02425650879740715,-0.003987482283264399,-0.023180795833468437,-0.01783028431236744,0.017579294741153717,-0.02556728571653366,0.016143163666129112,0.02488480508327484,-0.00014899163215886801,0.015099951066076756,-0.01928046904504299,0.026452068239450455,0.032984815537929535,0.007984261959791183,0.0309675931930542,-0.03427254781126976,-0.0038246847689151764,0.007156722247600555,-0.029388265684247017,0.016764184460043907,-0.013083902187645435,-0.01243272703140974,-0.02727823704481125,0.013726549223065376,-0.025165364146232605,-0.0074088661931455135,0.015063547529280186,0.02555844746530056,0.007501576561480761,-0.012626617215573788,-0.01459142193198204,0.01937163434922695,0.006366208661347628,0.028734106570482254,0.012765304185450077,0.027334947139024734,-0.027821281924843788,0.027490289881825447,-0.01530478522181511,-0.008959687314927578,-0.00023646527552045882,-0.006611618213355541,0.006814456079155207,0.030623184517025948,-0.020362263545393944,0.0105228740721941,-0.027547767385840416,0.005284758284687996,0.028019161894917488,0.02301703952252865,0.029594413936138153,0.01886088401079178,-0.002869649324566126,0.008626480586826801,-0.014743814244866371,0.02903270535171032,0.017114251852035522,-0.02492523565888405,0.029527034610509872,-0.0005544847226701677,-0.0015420435229316354,-0.009372767060995102,-0.008770476095378399,0.0019667302258312702,-0.016399407759308815,-0.03220537677407265,-0.018637586385011673,-0.007037500385195017,0.025826824828982353,0.02518637664616108,-0.020386183634400368,-0.0013648733729496598,-0.00991023052483797,-0.01830320619046688,-0.005865138955414295,-0.011492093093693256,0.01927274651825428,-0.017283963039517403,0.0039482456631958485,-0.02006540074944496,-0.010825800709426403,0.026941044256091118,-0.016575517132878304,-0.002018073108047247,0.03261994943022728,0.011659735813736916,-0.017415346577763557,-0.020264239981770515,-0.011591676622629166,-0.010690974071621895,0.014237897470593452,-0.008311532437801361,0.02852821908891201,-0.018463050946593285,-0.010768764652311802,0.012511031702160835,0.027266178280115128,0.03266159072518349,0.005434494465589523,0.0014632934471592307,-0.015209879726171494,0.01941986195743084,-0.01990308053791523,-0.009168513119220734,-0.0284170750528574,-0.0325641855597496,0.019119994714856148,0.002261180430650711,0.027133656665682793,0.0271349735558033,0.017891906201839447,0.013651085086166859,-0.008806964382529259,0.018385805189609528,0.01658562757074833,0.011914443224668503,-0.0006206691032275558,0.005206907168030739,-0.00024409608158748597,-0.024858903139829636,0.007769177667796612,-0.02521399036049843,0.016549838706851006,-0.020423559471964836,-0.011218046769499779,-0.016239650547504425,0.02710784412920475,-0.023786557838320732,0.017800718545913696,0.01715705171227455,0.023717530071735382,0.008149074390530586,0.01856149546802044,0.02697090432047844,0.006689439993351698,0.011582376435399055,-0.026791155338287354,-0.009126526303589344,0.0031485455110669136,0.00419218372553587,-0.012035946361720562,-0.033866409212350845,-0.008863660506904125,0.013119782321155071,0.029478032141923904,-0.03085443191230297,0.016373107209801674,-0.03240634873509407,-0.032658305019140244,-0.021370813250541687,-0.004470067098736763,0.009600606746971607,-0.025955745950341225,0.026407796889543533,0.03095637448132038,0.0020858626812696457,0.027803603559732437,-0.015453335829079151,-0.013473795726895332,-0.004355712793767452,0.003782405983656645,-0.023819575086236,-0.027341624721884727,0.013558809645473957,0.009917042218148708,0.03354308381676674,-0.013844343833625317,0.012112218886613846,-0.013823417946696281,0.016978276893496513,-0.0015472228405997157,0.0257088802754879,0.019200729206204414,0.028551943600177765,0.0176180899143219,0.0013262785505503416,0.029522033408284187,-0.02002313919365406,0.03237065672874451,0.033579301089048386,0.032831065356731415,-0.01579131931066513,-0.017498673871159554,0.0032489183358848095,0.011645816266536713,0.017735689878463745,0.014066345989704132,0.029184967279434204,-0.008523505181074142,-0.01117438729852438,0.011519893072545528,0.009638132527470589,-0.01968354545533657,0.0036561537999659777,-0.025611523538827896,-0.009344768710434437,-0.012361370958387852,0.030860058963298798,-0.030143840238451958,-0.01995922438800335,-0.03336241468787193,0.008679088205099106,-0.02627933956682682,0.011107232421636581,-0.023645907640457153,-0.021347278729081154,-0.01675558090209961,0.005624812096357346,0.03168269246816635,0.032347455620765686,-0.0021696221083402634,-0.03305377438664436,-0.011102414689958096,-0.012948574498295784,-0.0072259847074747086,0.013114364817738533,0.017250223085284233,0.015289339236915112,0.010271765291690826,-0.012796664610505104,0.0005321546923369169,0.004631432238966227,-0.017243297770619392,-0.002917935373261571,-0.004241510760039091,-0.03229636698961258,0.02324090711772442,-0.0034079139586538076,-0.02951924130320549,0.027106482535600662,-0.01840825192630291,0.012039209716022015,0.034283604472875595,0.00244977418333292,0.010627337731420994,0.014088795520365238,0.025618508458137512,-0.010674665682017803,-0.019246084615588188,-0.0026396752800792456,0.026796795427799225,0.002987633692100644,0.02385403774678707,-0.0003090701356995851,0.01009690947830677,0.0010507362894713879,0.0017110385233536363,-0.03153683617711067,-0.02921401895582676,0.002947630360722542,0.016849350184202194,0.02299310639500618,0.0015533047262579203,0.014467088505625725,0.014344077557325363,-0.02939268760383129,-0.029752014204859734,-0.026552852243185043,0.00016862162738107145,-0.02176918089389801,-0.010763038881123066,-0.004655821714550257,0.013299494981765747,0.007898888550698757,0.03187057748436928,0.03093039244413376,-0.02177196368575096,-6.824603769928217e-05,0.005743011366575956,0.030477168038487434,-0.00952163152396679,-0.013068469241261482,-0.021833136677742004,0.0250072181224823,-0.009621786884963512,-0.01256310660392046,0.023370901122689247,0.031623028218746185,-0.001374929677695036,-0.02406271919608116,0.0279111135751009,-0.011656137183308601,-0.015418142080307007,-0.023078985512256622,-0.01553909108042717,-0.026016032323241234,-0.019094040617346764,-0.030517594888806343,-0.006478525698184967,0.013877632096409798,-0.025893526151776314,6.6472043727117125e-06,-0.012566032819449902,0.016589902341365814,0.029666291549801826,-0.004431795794516802,-0.016918295994400978,-0.02579902671277523,-0.019541559740900993,0.010291907005012035,0.00817887019366026,0.018644699826836586,-0.0050063421949744225,0.017618535086512566,-0.030422253534197807,0.009241309948265553,0.033213239163160324,-0.033838994801044464,-0.017742980271577835,0.021908150985836983,-0.005347593687474728,-0.018264833837747574,0.020796610042452812,0.0022216152865439653,0.0012965763453394175,-0.010409599170088768,0.025768883526325226,0.018977897241711617,0.006137002259492874,0.00522997509688139,0.017696864902973175,0.021327149122953415,-0.014002799056470394,-0.0037485144566744566,0.014991769567131996,-0.016616662964224815,0.031942326575517654,-0.023535897955298424,0.015703372657299042,-0.024607473984360695,0.010975459590554237,0.02389594353735447,0.004133703652769327,-0.0034089121036231518,0.021786579862236977,-0.02449633739888668,-0.02300640568137169,-0.029047507792711258,-0.02084740437567234,0.001209833426401019,-0.01507350243628025,0.007973228581249714,0.001316639012657106,0.028539717197418213,-0.014800223521888256,-0.00934599805623293,0.02264232188463211,-0.00857833307236433,0.03291195258498192,-0.013348262757062912,8.382979285670444e-05,-0.006851582322269678,0.017663417384028435,0.014729226008057594,-0.01706000044941902,0.02303612232208252,-0.0019156670896336436,-0.008553273044526577,-0.0006799030816182494,0.02382570132613182,0.03363576531410217,0.01687803864479065,0.0063900332897901535,0.023542389273643494,-0.012467463500797749,-0.01604129746556282,-0.008492888882756233,-0.02117305062711239,0.015278494916856289,0.0036174680572003126,-0.011606225743889809,-0.003463412867859006,-0.0006725839921273291,0.029386159032583237,0.030902521684765816,-0.025546574965119362,0.013469400815665722,0.013794802129268646,0.013750090263783932,-0.003857517149299383,0.009626884944736958,0.009252864867448807,0.03345129266381264,-0.032765742391347885,-0.012969720177352428,-0.023008791729807854,-0.016535425558686256,0.007054703775793314,0.02148316614329815,-0.025361839681863785,0.022787736728787422,0.02979391999542713,-0.01587487943470478,0.006414695642888546,-0.017551954835653305,0.007237301208078861,-0.015887726098299026,-0.01331438310444355,-0.022875847294926643,-0.028540894389152527,0.027196966111660004,-0.004062276799231768,-0.00026872544549405575,-0.015212589874863625,0.0252138152718544,-0.01978401280939579,-0.014003759250044823,-0.02696155570447445,-0.028935931622982025,0.03036801517009735,-0.026403475552797318,-0.004675782285630703,-0.009905255399644375,0.012332996353507042,0.009239764884114265,-0.024875447154045105,0.0320809967815876,-0.03348267823457718,0.00337096955627203,-0.003305602353066206,-0.00820851419121027,0.02334323152899742,0.02891368791460991,0.0044617182575166225,-0.01200196985155344,0.025685055181384087,0.021776854991912842,0.006779227405786514,-0.008708528243005276,0.0017893561162054539,0.031043412163853645,0.0031964541412889957,-0.007060390897095203,-0.028758054599165916,-0.018208198249340057,0.02474221959710121,-0.0012003732845187187,-0.0022244825959205627,0.01377325039356947,-0.021539291366934776,-0.0014016535133123398,-0.008847633376717567,0.018465712666511536,0.028240950778126717,0.021822385489940643,0.025933971628546715,-0.030317211523652077,-0.012079555541276932,0.004074200987815857,-0.029042407870292664,0.009292949922382832,-0.022104987874627113,0.015396851114928722,0.028357386589050293,-0.028368012979626656,0.029756736010313034,0.017123574391007423,-0.02185804210603237,0.03294838219881058,-0.029539138078689575,-0.023002872243523598,-0.017001569271087646,-0.0017224923940375447,0.006139977835118771,-0.009969702921807766,-0.03205207735300064,-0.003377647837623954,0.026580337435007095,0.026781689375638962,0.017395298928022385,0.005105593241751194,0.008545820601284504,-0.026340216398239136,0.013862471096217632,-0.034028615802526474,-0.014097405597567558,-0.008961244486272335,0.025147570297122,-0.0009595757583156228,-0.01556908618658781,0.005903000012040138,-0.02855486236512661,-0.009267988614737988,0.009336433373391628,-0.0023363709915429354,-0.003601482603698969,0.020918188616633415,-0.02595618925988674,-0.01724245958030224,0.033135365694761276,0.006862595211714506,-0.005438936408609152,0.017767103388905525,0.02052062191069126,-0.005888937506824732,-0.014260574243962765,-0.005578316282480955,0.012474503368139267,-0.004302334506064653,0.019959092140197754,-0.02785726822912693,-0.016753168776631355,0.026125481352210045,0.004598830360919237,0.007040283177047968,0.011475504375994205,-0.00747468788176775,-0.012702739797532558,0.01084364764392376,-0.008224730379879475,-0.01356460340321064,0.004765473306179047,0.008396945893764496,-0.0030267820693552494,-0.023104233667254448,-0.005133140366524458,-0.0193387009203434,0.018235405907034874,-0.021899649873375893,0.027932699769735336,0.014271608553826809,-0.028510767966508865,0.026324152946472168,-0.03261779621243477,-0.0015003408771008253,-0.02119927667081356,-0.02935544028878212,0.0034136376343667507,-0.016569599509239197,0.024808641523122787,-0.026333166286349297,0.028867853805422783,0.020948832854628563,0.03037719428539276,-0.008527104742825031,-0.01838328130543232,-0.021150153130292892,0.028771577402949333,-0.01693379133939743,-0.004177148453891277,-0.005245910957455635,0.005904671270400286,-0.027939433231949806,0.027800150215625763,-0.02506249025464058,0.03457037732005119,-0.012134133838117123,-0.013976450078189373,-0.003941333387047052,0.010407352820038795,-0.006316280923783779,-0.03413268178701401,0.024072963744401932,0.03390342742204666,0.017279451712965965,0.03341895341873169,0.008954520337283611,-0.0021297368220984936,-0.024886149913072586,-0.028687454760074615,-0.023309320211410522,-0.008846566081047058,0.019468184560537338,-0.014314881525933743,-0.0013559419894590974,-0.0004653782525565475,-0.02233170159161091,-0.0008588850614614785,0.03295252099633217,0.027101026847958565,0.026832858100533485,-0.002722198609262705,0.0015328435692936182,0.019678233191370964,-0.012343039736151695,-0.014599931426346302,0.029320664703845978,0.001985136652365327,-0.023059507831931114,0.02884197235107422,0.0057899076491594315,0.018562115728855133,-0.029253659769892693,0.006398078054189682,0.020705455914139748,-0.0035315165296196938,-0.019257452338933945,0.02711629308760166,0.016215933486819267,0.00985871721059084,0.008130642585456371,0.0008011272875592113,0.01963423751294613,-0.007400014903396368,-0.01952255144715309,0.014021328650414944,0.009019067510962486,0.01262837927788496,-0.0034832367673516273,-0.0037494588177651167,-0.001999148866161704,0.00924229808151722,-0.026151908561587334,-0.03180563449859619,0.012836731970310211,-0.018701976165175438,-0.0028547653928399086,0.00976159330457449,0.005688080098479986,0.023737458512187004,0.006268679164350033,0.009668187238276005,-0.0024526691995561123,0.005258071236312389,0.012590132653713226,0.02341119945049286,-0.032357025891542435,-0.014218146912753582,-0.03066350147128105,-0.013615553267300129,0.02087872289121151,-0.03220800682902336,-0.030084410682320595,0.020270055159926414,-0.019946938380599022,0.02517401985824108,0.01082084234803915,0.008673352189362049,0.02720918506383896,-0.0316493883728981,0.025073673576116562,0.011118595488369465,-0.022893784567713737,0.008335772901773453,-0.009515547193586826,-0.013660423457622528,-0.0035713398829102516,-0.01595027931034565,0.030057325959205627,0.02952590025961399,-0.003601378295570612,-0.030299071222543716,-0.0020665060728788376,0.002286901930347085,0.022881444543600082,0.001120900735259056,0.009980703704059124,0.009102387353777885,-0.019413623958826065,-0.02129257284104824,-0.03072488307952881,-0.00039291527355089784,0.010530371218919754,-0.0024467362090945244,0.03321104496717453,-0.006506487727165222,-0.022297531366348267,0.005720616318285465,-0.009605594910681248,-0.004637057427316904,0.033209823071956635,-0.0010073201265186071,0.02976454794406891,0.004471010062843561,-0.012697822414338589,0.02510473132133484,-0.0194554440677166,0.0011665452038869262,0.0077143386006355286,0.015373293310403824,-0.03153453767299652,0.001723951194435358,-0.008769121952354908,0.022267453372478485,0.01163604948669672,0.013962063007056713,0.020961154252290726,-0.0072799548506736755,-0.0019911127164959908,0.02756780944764614,-0.027482297271490097,-0.0235847570002079,0.0025299370754510164,-0.013526380062103271,0.00199806597083807,0.030303629115223885,-0.003706315765157342,-0.02877063862979412,-0.015323746018111706,0.031887903809547424,-0.006898583844304085,-0.014293031767010689,0.01599441096186638,0.004483044147491455,-0.03006603755056858,0.028517451137304306,0.019278325140476227,0.029749343171715736,0.015130560845136642,-0.01102373842149973,-0.010841712355613708,0.0167873315513134,-0.006058547645807266,0.007782078813761473,-0.031926896423101425,-0.01618233695626259,0.012930157594382763,-0.0016075705643743277,-0.016414277255535126,-0.02981487475335598,0.021752119064331055,-0.006697147153317928,-0.03309532254934311,0.033385466784238815,0.01717302016913891,-0.0198817178606987,-0.024175429716706276,0.03360531106591225,0.00048447621520608664,-0.020486874505877495,0.019705677404999733,-0.007108327932655811,0.0023622270673513412,-0.017801780253648758,-0.0289311520755291,-0.02261432446539402,-0.003020193427801132,-0.023885900154709816,0.03391197323799133,0.0007718425476923585,-0.013098419643938541,0.013322323560714722,-0.030434416607022285,-0.017524369060993195,0.012855617329478264,-0.02904047630727291,0.0170967448502779,0.0027785112615674734,-0.028749143704771996,-0.03311029449105263,0.011619562283158302,0.016907069832086563,-0.006493650376796722,-0.030980713665485382,-0.020037492737174034,0.003585290629416704,0.0012376061640679836,0.008773516863584518,0.006066580303013325,-0.0016663402784615755,0.01811961643397808,0.033130012452602386,0.028690055012702942,0.03170982003211975,-0.0109139084815979,-0.011449884623289108,-0.0038231024518609047,0.010210806503891945,0.013904872350394726,-0.0030104336328804493,-0.022064421325922012,-0.025791915133595467,0.033095717430114746,-0.008631398901343346,-0.004281105473637581,-0.020924706012010574,-0.01657489687204361,0.008172349072992802,0.015247981995344162,-0.013144493103027344,-0.012433875352144241,0.027185479179024696,-0.017570510506629944,-0.025492345914244652,-0.005325535777956247,0.032640352845191956,0.008118872530758381,0.005622612778097391,-0.0038700278382748365,0.0217004232108593,-0.01661374792456627,0.023632878437638283,0.008312569931149483,0.003926669713109732,0.004779282957315445,-0.021062523126602173,0.025423577055335045,0.017979225143790245,-0.026721520349383354,-0.03153394162654877,-0.008183370344340801,0.02314111404120922,-0.01654636487364769,0.03196888044476509,-0.016814175993204117,-0.030644970014691353,0.015106484293937683,-0.02063266560435295,-0.005369024351239204,-0.010647607035934925,-0.002698176773265004,-0.02978542260825634,-0.03130902722477913,0.014921444468200207,-0.00357429007999599,-0.020372634753584862,-0.000719526200555265,-0.031095359474420547,0.009155803360044956,0.01626409962773323,0.033191557973623276,-0.027841832488775253,-0.004127052146941423,0.018656257539987564,0.03144025057554245,-0.024235963821411133,0.014635062776505947,0.014211463741958141,0.020685210824012756,-0.023558862507343292,0.024423489347100258,-0.014879192225635052,-0.021010056138038635,0.006864546798169613,0.029061682522296906,-0.022554563358426094,0.018356066197156906,-0.003817644901573658,0.011026068590581417,0.026792727410793304,0.00942489504814148,-0.028215978294610977,-0.010099795646965504,0.0068890550173819065,-0.0288858562707901,0.005692113656550646,-0.018342334777116776,-0.006732132285833359,0.012324543669819832,-0.027429891750216484,-0.02185986563563347,0.01570104993879795,-0.03369351848959923,0.02378760650753975,-0.026157815009355545,-0.0004725244943983853,0.007043442688882351,0.013937420211732388,-0.020696265622973442,0.005001500714570284,0.014924031682312489,0.029454562813043594,-0.025644075125455856,-0.016912713646888733,0.01009990181773901,-0.0008399911457672715,-0.022830232977867126,-0.028566254302859306,-0.02994973585009575,-0.023010101169347763,-0.013418355956673622,-0.022920962423086166,-0.029426023364067078,0.003013267181813717,0.020259220153093338,-0.016030199825763702,0.0035305817145854235,-0.00025358094717375934,0.01616530492901802,-0.023207198828458786,0.0031432744581252337,0.033618662506341934,0.02571956254541874,-0.033367011696100235,-0.004889203235507011,0.0007782250177115202,-0.010907788760960102,-0.022279664874076843,-0.02370299957692623,0.02282317541539669,-0.011010851711034775,-0.002032532123848796,0.011084561236202717,-0.019773684442043304,0.003615253372117877,0.020591983571648598,-0.01964428648352623,0.010934957303106785,-0.0004122493846807629,0.018938204273581505,0.02280179224908352,0.009167233482003212,0.0011189340148121119,-0.029346905648708344,0.013944634236395359,0.021162405610084534,-0.012846823781728745,-0.033725153654813766,0.028575794771313667,-0.006472931243479252,0.007706788834184408,-0.009623979218304157,0.021752728149294853,0.03341711685061455,0.021535351872444153,-0.010780020616948605,0.024130767211318016,0.016952693462371826,0.0030300943180918694,-0.027457520365715027,-0.013547147624194622,-0.03290489315986633,0.023528479039669037,0.034061823040246964,0.01973041705787182,0.010858641006052494,0.008187740109860897,0.03301892802119255,-0.01723494939506054,-0.011271839961409569,-0.030602460727095604,-0.003271413967013359,0.003624433884397149,0.009906119666993618,-0.023569665849208832,-0.003482133848592639,-0.02868959866464138,-0.028189310804009438,0.0046411119401454926,-0.033240921795368195,0.009201264008879662,-0.03140414133667946,-0.023645663633942604,-0.006657097488641739,-0.03113066777586937,0.02894298918545246,0.02858979068696499,-0.01727145165205002,0.006431580986827612,0.01680500991642475,0.011167892254889011,-0.004329489544034004,-0.032127466052770615,0.024963458999991417,-0.0298885777592659,-0.00618449691683054,0.002747255377471447,-0.010236714966595173,-0.01179349422454834,-0.028934644535183907,0.0019908794201910496,-0.0036267107352614403,0.030359141528606415,-0.010933063924312592,0.026568664237856865,0.0017192981904372573,-0.01527381781488657,-0.008006716147065163,-0.003585144178941846,0.0007254703668877482,-0.005467762239277363,0.010544282384216785,0.029140910133719444,0.0065171606838703156,0.013220028020441532,0.02143699675798416,0.0074840388260781765,0.01585637591779232,0.018030470237135887,0.03210606053471565,-0.03112180531024933,0.011907224543392658,-0.001081333844922483,-0.005504361353814602,-0.012504296377301216,0.021059265360236168,0.0315636582672596,-0.02773267775774002,0.01858404278755188,0.02366974577307701,0.006072077434509993,0.0004976341733708978,0.02628263831138611,0.0009776237420737743,-0.008566411212086678,-0.0025595049373805523,0.010939519852399826,0.008528821170330048,-0.001875388785265386,0.010764042846858501,0.009169806726276875,-0.027748793363571167,0.008479642681777477,0.02088797464966774,0.003885712008923292,-0.0031583302188664675,0.026165170595049858,-0.029905088245868683,-0.015601038932800293,-0.015407494269311428,0.029622776433825493,-0.03297499567270279,0.0034685537684708834,-0.03311630338430405,-0.0011577808763831854,0.01271012332290411,-0.008036483079195023,0.03316284343600273,7.24679121049121e-05,-0.01746082678437233,0.008872934617102146,0.017985742539167404,0.00025047059170901775,0.029587272554636,-0.021480539813637733,0.014774157665669918,0.01952080801129341,0.01702287048101425,-2.665020110725891e-05,0.009725067764520645,-0.026869997382164,-0.026874421164393425,-0.0021207272075116634,-0.004075587261468172,0.025896774604916573,0.02545078843832016,0.023607665672898293,-0.01611417531967163,-0.027210639789700508,-0.03201567754149437,0.012457291595637798,-0.030816450715065002,-0.034177836030721664,-0.017324063926935196,-0.02890978939831257,-0.01345901470631361,-0.021236248314380646,-0.01691955141723156,0.03310041502118111,-0.006270878482609987,0.026934081688523293,0.00022621778771281242,-0.004142322577536106,-0.009819380939006805,-0.024394212290644646,-0.027513230219483376,0.023641793057322502,-0.01057490985840559,-0.03334137424826622,0.031589630991220474,0.0010228540049865842,-0.02255975268781185,-0.02702319249510765,-0.030868547037243843,-0.030117306858301163,0.031284499913454056,0.023781491443514824,0.0028924692887812853,-0.029188212007284164,-0.00898647028952837,-0.03216535598039627,0.011773449368774891,-0.008928258903324604,-0.007168442476540804,-0.010606855154037476,0.015544493682682514,0.016045553609728813,0.007424874231219292,-0.003885558107867837,-0.0030789023730903864,-0.00048046588199213147,-0.025499120354652405,0.033331360667943954,-0.014786562882363796,0.01990235224366188,-0.018903173506259918,0.0006041057058610022,0.01202086266130209,-0.03219349682331085,0.013668223284184933,-0.025853347033262253,0.0053884671069681644,-0.006407965440303087,0.019724683836102486,0.033214107155799866,0.007664322853088379,-0.0010077646002173424,-0.01686989888548851,0.013167818076908588,-0.015621853061020374,0.014846261590719223,-0.015872003510594368,0.022020041942596436,0.02669593133032322,0.02149834856390953,0.0007192170596681535,0.016014745458960533,-0.031154010444879532,0.02769765816628933,-0.008913813158869743,0.012615861371159554,-0.005199974402785301,-0.010461894795298576,-0.014866231009364128,0.021675625815987587,-0.019009830430150032,-0.005429594777524471,0.018004657700657845,0.004031455609947443,-0.028495514765381813,-0.03396068140864372,-0.016666777431964874,0.03151419013738632,-0.024226747453212738,0.019281957298517227,0.025184266269207,-0.013603869825601578,-0.015211591497063637,-0.02460590936243534,0.006245507393032312,-0.003905056742951274,0.0021728051360696554,0.015068447217345238,0.014392510987818241,-0.010831186547875404,0.0023145447485148907,0.008117862045764923,0.0007716703694313765,0.006776564288884401,-0.014424116350710392,0.027363384142518044,-0.003995389211922884,-0.004241634160280228,-0.03041764907538891,-0.024637136608362198,0.001115472987294197,-0.005308893974870443,-0.01723645254969597,0.017866602167487144,-0.003099095541983843,0.011972224339842796,0.02867107465863228,-0.01611223816871643,-0.017288995906710625,-0.007214622106403112,-0.0030849373433738947,-0.017122482880949974,-0.008211580105125904,-0.0010069842683151364,0.015305913053452969,0.03160513564944267,0.025317613035440445,0.00361067452467978,-0.0021627095993608236,0.008759500458836555,-0.001384979928843677,-0.0044647278264164925,0.011804608628153801,-0.027781488373875618,-0.029059063643217087,0.00014756050950381905,-0.010367389768362045,-0.016924386844038963,-0.031848806887865067,0.02290124073624611,-0.0013696119422093034,-0.018366629257798195,-0.013871644623577595,0.00911613367497921,-0.024620788171887398,0.00235864263959229,-0.00027699925703927875,0.011755586601793766,0.013671521097421646,-0.022302905097603798,0.014765650033950806,0.02581927739083767,0.0021929077338427305,0.01742592453956604,-0.012875509448349476,0.007018283009529114,0.0104595348238945,-0.01505754329264164,0.021800126880407333,-0.03154631704092026,-0.012441207654774189,-0.020065132528543472,-0.020384561270475388,-0.020735498517751694,-0.032223403453826904,0.005862032528966665,-0.006743511185050011,-0.0286139864474535,0.0005210195668041706,-0.004748353268951178,0.015130624175071716,-0.026569107547402382,-0.009323189035058022,0.006765338126569986,0.01422328595072031,0.002618224825710058,0.009349249303340912,0.03420500084757805,-0.011854917742311954,0.023340802639722824,0.029739465564489365,-0.0295750480145216,0.009182624518871307,0.019845569506287575,-0.007052046712487936,0.01800835318863392,0.0003977504384238273,0.02600192464888096,0.0009881805162876844,-0.021820517256855965,0.025996193289756775,0.01016392931342125,0.029126537963747978,0.008734715171158314,0.018640855327248573,0.021837295964360237,0.00555596686899662,-0.009967849589884281,0.006205622106790543,-0.024509362876415253,0.0016020240727812052,-0.010699812322854996,0.0022227263543754816,-0.027044974267482758,0.02088865078985691,-0.031540852040052414,0.014850304462015629,0.02282615751028061,-0.03092729113996029,0.030735747888684273,-0.02732260525226593,-0.0076292892917990685,0.017979241907596588,-0.010140328668057919,0.030865278095006943,-0.014935535378754139,-0.004531975835561752,-0.022365912795066833,-0.015828127041459084,0.0336393266916275,0.026294033974409103,0.0033865212462842464,0.0027557467110455036,-0.030991123989224434,0.0261378176510334,-0.0038228805642575026,-0.013355918228626251,-0.026687925681471825,0.02833193726837635,0.01627383381128311,0.020593862980604172,0.0036277398467063904,-0.022766051813960075,0.015140133909881115,0.005256903823465109,0.011731147766113281,-0.00886332057416439,-0.014866049401462078,0.02923138625919819,0.012525527738034725,-0.01318240724503994,0.003328294726088643,-0.007355801295489073,-0.0029280560556799173,0.019320545718073845,-0.02663062885403633,0.03202510252594948,0.024478454142808914,0.00036107187042944133,-0.013688835315406322,0.008199434727430344,-0.021100537851452827,0.02361874468624592,-0.017295656725764275,0.006821978371590376,-0.033561382442712784,0.016374679282307625,0.023252438753843307,0.02605818398296833,0.0034312140196561813,0.02078012190759182,0.01120112556964159,0.02271324396133423,0.020486177876591682,-0.02861008793115616,0.00450214883312583,-0.011173148639500141,-0.01616506278514862,0.023974521085619926,-0.004901651293039322,0.005351671949028969,0.021702678874135017,0.02320210263133049,0.018131012097001076,-0.006227210164070129,-0.030689744278788567,-0.03253377601504326,0.011099805124104023,-0.00016684898582752794,-0.02147667296230793,0.014969964511692524,0.03104167804121971,0.019772395491600037,-0.004835864529013634,0.00458381837233901,-0.0219227634370327,0.015844058245420456,-0.026828870177268982,0.02331274002790451,-0.015721334144473076,-0.013555099256336689,-0.028631867840886116,-0.008264151401817799,-0.0033161910250782967,-0.015773700550198555,0.024328529834747314,0.019610462710261345,-0.030200140550732613,-0.0034193105529993773,0.011544759385287762,0.033088020980358124,-0.008023397997021675,0.021174408495426178,-0.0017794420709833503,-0.013056451454758644,0.020946748554706573,-0.030489131808280945,0.0286368690431118,0.034143753349781036,-0.009352748282253742,0.013547004200518131,0.03433645889163017,0.010831113904714584,0.014035132713615894,0.013135802932083607,-0.013714337721467018,0.008202503435313702,-0.01834419183433056,0.029143648222088814,-0.014676710590720177,0.007805393543094397,-0.009925401769578457,0.017106031998991966,0.0007787498761899769,0.0194264966994524,-0.008476742543280125,-0.019355211406946182,0.012901845388114452,-0.019753912463784218,-0.028368519619107246,0.013171187601983547,-0.020525353029370308,-0.012838080525398254,-0.008547477424144745,0.0024131489917635918,-0.011801145039498806,-0.011986270546913147,-0.007918963208794594,0.02452032081782818,0.010322307236492634,-0.017590204253792763,-0.024243110790848732,0.0014834256144240499,0.011464916169643402,-0.0005760834901593626,0.020034445449709892,0.028760617598891258,0.010007298551499844,0.011287522502243519,0.020029110834002495,-0.011346938088536263,0.006346747744828463,0.027814874425530434,-0.018642393872141838,0.0021408426109701395,-0.0129868034273386,-0.025994086638092995,0.018299425020813942,0.027350295335054398,-0.018481025472283363,0.012799636460840702,0.010482204146683216,0.013496778905391693,0.019105514511466026,0.03244420140981674,0.025941593572497368,-0.03337833657860756,-0.013064530678093433,0.018760664388537407,-0.019156362861394882,0.006982570514082909,-0.014604725874960423,0.006794723682105541,0.016670100390911102,0.010747886262834072,0.025139065459370613,-0.0034767971374094486,0.01927189715206623,0.010010273195803165,-0.012398089282214642,-0.02330840937793255,0.031947970390319824,-0.009496688842773438,0.02608935534954071,0.021630797535181046,-0.001371406251564622,-0.02826819382607937,0.002835135208442807,-0.0159829743206501,0.009852529503405094,-0.012446214444935322,0.02523031271994114,-0.031248947605490685,-0.008787667378783226,0.006624705158174038,0.00427890382707119,0.028481658548116684,-0.010722734034061432,-0.027286194264888763,0.022631870582699776,0.00972965732216835,0.023003650829195976,-0.01905597187578678,-0.018823638558387756,-0.014162159524857998,0.0020734493155032396,0.013002892956137657,-0.017798949033021927,-0.0022838586010038853,-0.00551851699128747,0.0313030444085598,-0.012305423617362976,0.03313304856419563,-0.020869193598628044,-0.013641534373164177,-0.024855637922883034,0.02559404820203781,-0.02271167002618313,0.015232694335281849,-0.011160992085933685,0.035075075924396515,0.005404951516538858,-0.02939251996576786,0.005967676639556885,0.004170057829469442,-0.03309785947203636,0.006849126424640417,0.03260628134012222,0.009684944525361061,-0.0006525263888761401,-0.007331181317567825,0.00900562945753336,-0.01509013120085001,0.03403778374195099,0.029838472604751587,0.016104958951473236,-0.012710698880255222,-0.032119765877723694,-0.019707640632987022,0.03323277831077576,-0.03141864761710167,-0.03269917890429497,-0.002635531360283494,0.01080865878611803,-0.034056033939123154,-0.03169092535972595,0.00032441294752061367,-0.011382720433175564,0.023861050605773926,0.00982273742556572,-0.02970234677195549,-0.030844340100884438,0.023470425978302956,-0.00608424236997962,-0.014980738051235676,0.010742757469415665,-0.006772052496671677,0.01629132218658924,0.008637306280434132,-0.014820771291851997,-0.027413295581936836,0.01850930228829384,-0.02056274190545082,-0.003801001701503992,0.004659496713429689,-0.019920865073800087,0.018620377406477928,-0.024042677134275436,0.00846083927899599,0.003761947387829423,0.01270415261387825,-0.03341959789395332,0.0020467995200306177,0.016683993861079216,-0.021903079003095627,0.00844834465533495,0.0001173108903458342,0.02899818681180477,-0.007249908056110144,0.00028477818705141544,-0.014662901870906353,-0.008085330948233604,0.010134744457900524,-0.03283895179629326,0.025897951796650887,0.024444526061415672,0.014431177638471127,0.025601213797926903,-0.010659513995051384,0.00777507433667779,0.0017238804139196873,-0.023624740540981293,-0.012915943749248981,-0.011648458428680897,-0.007907237857580185,-0.03011435829102993,-0.0246184840798378,-0.003853193949908018,-0.005446558352559805,-0.031054368242621422,0.007297278847545385,0.01860431768000126,0.02846946194767952,0.02877267263829708,-0.023823685944080353,-0.010593687184154987,-0.015594305470585823,0.0067603811621665955,0.009036245755851269,0.005923106800764799,0.01921791024506092,0.018205910921096802,-0.01808515004813671,0.023535722866654396,0.02306903526186943,0.004515876527875662,-0.029768051579594612,-0.020914021879434586,0.009888221509754658,0.012355491518974304,0.03236241638660431,0.017138222232460976,0.009458250366151333,-0.0015537397703155875,0.023637063801288605,-0.01221582293510437,0.013988969847559929,-0.01628447137773037,-0.000329709320794791,0.020197676494717598,0.01573341153562069,-0.007383846212178469,-3.43918836733792e-05,-0.01849527284502983,0.014918940141797066,0.01977553963661194,0.012287051416933537,-0.03270920366048813,-0.024241792038083076,0.02301054634153843,-0.004887851886451244,0.020995939150452614,0.025192823261022568,-0.009976179338991642,-0.019678452983498573,-0.03173261880874634,0.013626608066260815,0.015860294923186302,-0.008068939670920372,-0.03278433158993721,-0.02157677337527275,-0.0014866279670968652,0.015782199800014496,-0.011433998122811317,-0.022084476426243782,-0.023825151845812798,0.03074202500283718,0.012930959463119507,-0.026960307732224464,-0.020509446039795876,-0.031018130481243134,0.003657957771793008,-0.01360408030450344,0.000602280197199434,-0.004902535583823919,-0.029707515612244606,-0.030514921993017197,-0.02652994729578495,-0.014324750751256943,0.005562194623053074,-0.015443331561982632,-7.873434697103221e-06,-0.003697808366268873,0.029400663450360298,-0.016088129952549934,0.03277673199772835,-0.02557084709405899,-0.0281167421489954,0.01129064615815878,-0.019879665225744247,0.01753687672317028,-0.018915431573987007,0.027177561074495316,0.03373027592897415,0.0029920630622655153,0.007364606484770775,0.030528023838996887,0.01983710005879402,-0.029432378709316254,-0.000636929296888411,-0.03057890757918358,0.026245787739753723,-0.00624889088794589,-0.00024745907285250723,-0.021019335836172104,-0.018508123233914375,0.004700959660112858,0.028251387178897858,-0.017745157703757286,0.0021050134673714638,0.03022158145904541,0.030827069655060768,-0.006374516058713198,0.03223147243261337,0.012522870674729347,0.03115292824804783,0.001001129625365138,-0.028999822214245796,-0.009304308332502842,0.010309750214219093,0.01814783737063408,-0.03449322283267975,0.026198972016572952,-0.031076638028025627,0.019994933158159256,0.0338161438703537,0.008464477956295013,-0.006447103805840015,0.01881917007267475,-0.01016826368868351,-0.02535100467503071,-0.024291062727570534,0.016048697754740715,0.026032503694295883,0.0011536494130268693,-0.033381398767232895,-0.03381342813372612,-0.007811323273926973,0.018456701189279556,-0.022799454629421234,0.009205812588334084,-0.018710710108280182,0.02780969627201557,-0.00903660524636507,-0.007201802916824818,-0.030066803097724915,-0.03068479336798191,0.002292474266141653,0.005544563755393028,0.018518393859267235,-0.029877735301852226,0.005981724243611097,-0.004989095032215118,0.01999378763139248,-0.01562553457915783,0.010114996694028378,0.013707645237445831,0.01711309514939785,-0.011771298944950104,0.011020805686712265,-0.006645469460636377,0.00930884387344122,-0.02093682624399662,-0.027059005573391914,-0.027829639613628387,-0.021408937871456146,-0.014503954909741879,0.005018946714699268,-0.007555807940661907,-0.01954403705894947,0.0002303522196598351,-0.010817754082381725,0.021120402961969376,-0.027970870956778526,-0.01226250920444727,-0.021547509357333183,0.0045773680321872234,0.0019756611436605453,-0.0021616274025291204,0.033724769949913025,-0.013126139529049397,-0.004976640921086073,0.008763241581618786,0.02848518267273903,0.025912009179592133,0.004108400549739599,-0.012255428358912468,0.012140868231654167,0.022425228729844093,-0.0007781135500408709,0.01783403940498829,0.027291681617498398,-0.018389523029327393,-0.007497900165617466,-0.03084123693406582,0.007776452694088221,0.02431771345436573,-0.006572775077074766,0.0058386973105371,0.011655298992991447,-0.00041799142491072416,0.026056379079818726,0.0034667085856199265,-0.03496696054935455,-0.02827574871480465,-0.033633287996053696,0.0014386818511411548,0.0184265598654747,-0.00458464864641428,0.030718669295310974,-0.006052977405488491,0.00732346111908555,0.031076466664671898,0.016766779124736786,-0.0012947616633027792,0.03100712224841118,-0.021043211221694946,0.013211065903306007,0.02184152975678444,-0.021153967827558517,-0.03218106925487518,0.01086593046784401,-0.013017498888075352,-0.017194701358675957,0.007037403527647257,-0.024689126759767532,0.03118390031158924,-0.003574785077944398,-0.013739320449531078,0.029176855459809303,0.010114729404449463,0.006843934766948223,-0.016223197802901268,0.03255866467952728,-0.01048818789422512,0.028411248698830605,-0.0025166517589241266,0.017433125525712967,0.02460494264960289,-0.024849986657500267,-0.024298224598169327,-0.03458350524306297,0.02594488486647606,0.03000291809439659,-0.012074790894985199,-0.016595447435975075,0.005701443646103144,0.018344298005104065,0.008382037281990051,-0.006968374364078045,-0.021097304299473763,0.030055571347475052,-0.021312234923243523,-0.034116387367248535,-0.013147770427167416,0.007458550855517387,0.013418658636510372,0.01380250696092844,-0.019596360623836517,-0.013093877583742142,-0.015282020904123783,-0.016600271686911583,-0.028582127764821053,0.00738048180937767,-0.009054441936314106,-0.032709866762161255,-0.020867912098765373,-0.02058717980980873,-0.013791313394904137,-0.019963806495070457,-0.005298289004713297,0.012498042546212673,-0.027647197246551514,-0.0029992491472512484,-0.009864510037004948,-0.0173781830817461,-0.007201252039521933,-0.014198368415236473,0.00019184197299182415,-0.025507915765047073,0.00696302205324173,0.032377928495407104,0.02896173857152462,-0.015050427988171577,0.010619078762829304,-0.0323803536593914,0.028728019446134567,-0.03409094735980034,-0.03042723797261715,-0.030506914481520653,-0.03187912330031395,0.004165110643953085,-0.009334007278084755,0.008373228833079338,-0.0019070144044235349,-0.000640098296571523,-0.01235209871083498,-0.02035808004438877,-0.02872450463473797,0.01718355156481266,-0.01771293580532074,-0.0070681278593838215,0.016373319551348686,-0.008927742019295692,-0.009167949669063091,-0.02310490980744362,-0.029340533539652824,0.01639491319656372,-0.007760781794786453,0.021433552727103233,0.0021682665683329105,-0.00012104342749807984,-0.03094552457332611,0.0006868934142403305,-0.007797792088240385,-0.01958462968468666,-0.00798224750906229,0.0017211094964295626,-0.025833727791905403,0.005630571395158768,0.02373509295284748,0.0066941408440470695,0.03258407488465309,0.015892038121819496,-0.02704143151640892,-0.013530506752431393,-0.008299380540847778,0.010157442651689053,-0.0010583677794784307,0.027444975450634956,0.003883517114445567,-0.021753830835223198,-0.01264557708054781,-0.028602829203009605,-0.009545632638037205,0.016754521057009697,0.00026966072618961334,-0.032684195786714554,-0.0296632070094347,0.012322845868766308,-0.03013155236840248,-0.027452951297163963,-0.02061638794839382,0.0323382206261158,-0.010003647767007351,-0.014493096619844437,-0.023604797199368477,0.02165796421468258,-0.005570567678660154,0.006544751580804586,0.00810442864894867,0.009573867544531822,0.021791381761431694,0.001593923196196556,0.0032262071035802364,-0.0026723016053438187,-0.027168260887265205,-0.008461881428956985,0.03176208958029747,-0.02535555325448513,-0.022128421813249588,-0.034043144434690475,0.001979702850803733,-0.032066646963357925,-0.017597932368516922,0.03139454871416092,0.013955892994999886,0.017826145514845848,0.0053138770163059235,-0.029564034193754196,-0.0163998045027256,-0.028433699160814285,-0.022540133446455002,0.010759811848402023,-0.009786677546799183,0.03328050673007965,-0.025004157796502113,-0.029268693178892136,0.033666905015707016,-0.029704490676522255,0.02876996248960495,0.008663340471684933,-0.0313383974134922,0.029787492007017136,-0.009630146436393261,-0.015148221515119076,-0.02736995741724968,-0.02921971306204796,0.0075143794529139996,-0.03366072103381157,0.013981086201965809,-0.00852920114994049,0.01184175442904234,-0.008700733073055744,0.01111710723489523,-0.0011728768004104495,0.010069294832646847,-0.014152980409562588,-0.02402208186686039,0.003961510490626097,-0.022065427154302597,-0.021275904029607773,-0.032950785011053085,-0.010972336865961552,-0.022988295182585716,0.02632160112261772,0.024384936317801476,0.0075302510522305965,0.027326475828886032,0.01605135388672352,-0.032594434916973114,-0.0036398551892489195,-0.005759327206760645,-0.020941797643899918,0.009681135416030884,-0.010734234005212784,-0.016430780291557312,-0.0007061026408337057,-0.023475680500268936,0.028002208098769188,0.02135804109275341,0.03192300349473953,-0.0068389857187867165,0.010471971705555916,-0.0017090348992496729,-0.02861572802066803,0.015268087387084961,-0.023968005552887917,-0.012405432760715485,-0.01539375726133585,-0.0337967611849308,-7.425341027555987e-05,0.004823488648980856,-0.0028476102743297815,0.024722719565033913,0.0006354982615448534,-0.007197947707027197,-0.019272129982709885,-0.020823411643505096,-0.005129286553710699,-0.020151961594820023,-0.02262282185256481,-0.004596794489771128,-0.006353174801915884,-0.0220878217369318,0.01869199611246586,0.028261562809348106,-0.02398722805082798,0.014209100045263767,-0.016447868198156357,-0.004039836581796408,0.03148270770907402,0.004131822846829891,-0.0326952263712883,0.03137470409274101,-0.001516434014774859,-0.017251556739211082,-0.018481580540537834,0.02873317524790764,0.0001021966672851704,0.018459223210811615,0.022145984694361687,-0.013540125451982021,0.0026270293164998293,-0.022362709045410156,0.028421394526958466,-0.018161866813898087,0.022652089595794678,0.008597535081207752,0.02102234587073326,-0.024228565394878387,-0.0012911059893667698,0.01742013543844223,-0.00176161655690521,-0.0007668051403015852,0.01647387631237507,-0.02564767748117447,-0.006922286003828049,0.015499128960072994,0.016704386100172997,0.03169803321361542,-0.0067814067006111145,0.008087948895990849,-0.016844535246491432,-0.005758234299719334,-0.017186008393764496,0.025335855782032013,0.00019740595598705113,0.013900725170969963,0.018803970888257027,0.006360890343785286,0.0036232401616871357,-0.0025190722662955523,-0.02898709662258625,0.005494706332683563,-0.0075939614325761795,-0.02877247892320156,0.03182106465101242,-0.003707387950271368,-0.01720096543431282,-0.03347966820001602,-0.031695518642663956,0.012829097919166088,-0.01572088897228241,-0.014809491112828255,-0.019811207428574562,0.02759474702179432,-0.008237957023084164,0.022142663598060608,0.02709854021668434,-0.026636477559804916,0.025278311222791672,-0.006917135324329138,0.032177481800317764,0.01657394878566265,-0.034188222140073776,0.005906920880079269,0.011804098263382912,-0.0124893207103014,0.025934062898159027,-0.028343813493847847,-0.010894913226366043,0.03248213976621628,0.03310912474989891,0.016524143517017365,-0.021285666152834892,-0.030626557767391205,-0.029303861781954765,-0.010287555865943432,0.018512172624468803,0.010386904701590538,-0.0043830606155097485,0.03069283999502659,0.026833830401301384,-0.016043584793806076,-0.014983873814344406,-0.0007838853052817285,0.006569964345544577,-0.0010420333128422499,0.011973461136221886,0.022290565073490143,-0.007808168884366751,0.015664326027035713,0.003975126892328262,0.012819267809391022,0.013982105068862438,-0.009169223718345165,-0.015300387516617775,0.014478492550551891,-0.022188877686858177,0.01732739992439747,-0.02259123884141445,0.023033594712615013,0.013258680701255798,-0.009460464119911194,0.01846369355916977,-0.01184450276196003,0.0071103693917393684,0.009986120276153088,0.0034714601933956146,0.006836622953414917,-0.0007969384896568954,-0.010268457233905792,0.01824180595576763,0.013009412214159966,0.012510706670582294,0.022593550384044647,-0.0188211128115654,-0.008898665197193623,-0.0014348080148920417,0.02749798819422722,-0.027307266369462013,-0.019635094329714775,-0.00823949184268713,-0.029513871297240257,-0.02760012447834015,0.02249003015458584,0.0008463984704576433,-0.028412824496626854,-0.006615201011300087,-0.002429279964417219,-0.013031247071921825,-0.028946371749043465,0.018528150394558907,-0.0042788684368133545,0.033373940736055374,-0.026423141360282898,-0.019520003348588943,-0.002768024569377303,-0.025236843153834343,0.02354058064520359,0.024856753647327423,0.02924511767923832,-0.02302202396094799,0.02353479340672493,0.023364773020148277,-0.013789184391498566,0.0036954728420823812,0.01627408340573311,0.024149050936102867,-0.033173080533742905,0.03263813257217407,-0.010187994688749313,0.012531369924545288,-0.02315281331539154,-0.028217313811182976,-0.024302445352077484,0.01935165375471115,-0.017340216785669327,0.01972777396440506,0.010285601951181889,0.013583652675151825,-0.007847185246646404,-0.011830899864435196,-0.017216477543115616,-0.02041638456285,0.030075082555413246,-0.0034159335773438215,-0.01575334556400776,-0.032354600727558136,0.0009075506241060793,-0.03429834544658661,-0.000506891286931932,0.021542416885495186,-0.019716862589120865,0.018695184960961342,-0.011389065533876419,-0.026987578719854355,-0.03448410704731941,0.016353895887732506,-0.026613833382725716,0.016437256708741188,0.004571270663291216,0.018302980810403824,-0.02583763748407364,0.02987203747034073,-0.034087106585502625,-0.025975707918405533,0.02049645408987999,0.001124287024140358,-0.019288979470729828,-0.007282190024852753,-0.03060978278517723,-0.02995181642472744,-0.007502499036490917,0.026036323979496956,0.010184017941355705,0.006431261543184519,-0.009077292867004871,0.03111511468887329,0.00029089293093420565,0.011511684395372868,0.00050558295333758,0.0052924384362995625,0.011360392905771732,0.02622302994132042,0.019661584869027138,0.004328851122409105,0.013645200990140438,-0.010330303572118282,0.023333540186285973,0.009564751759171486,0.025775164365768433,-0.005376686342060566,-0.027963176369667053,0.006691772490739822,0.013758090324699879,0.02742951363325119,0.012886729091405869,0.012038765475153923,0.026641622185707092,-0.012147041037678719,0.030014533549547195,0.017417816445231438,0.02278129756450653,0.024363191798329353,-0.02797970362007618,0.017754480242729187,0.03168919309973717,-0.024347642436623573,-0.0034196253400295973,-0.021641619503498077,-0.009021018631756306,0.004553382750600576,0.017456043511629105,-0.010442457161843777,-0.032567597925662994,0.018359268084168434,0.019132833927869797,-0.0062472340650856495,0.02917737141251564,0.02618327923119068,-0.007818585261702538,0.0007033254951238632,0.0051480685360729694,-0.007220386993139982,-0.00908217765390873,-0.017429612576961517,-0.020783599466085434,0.016702871769666672,-0.010285337455570698,-0.016471585258841515,0.030077790841460228,0.00539924344047904,0.024618050083518028,0.030813008546829224,-0.005522205028682947,0.0047802855260670185,0.03172760456800461,-0.024332387372851372,-0.012333073653280735,0.0035800342448055744,-0.002782701049000025,0.0090096490457654,0.017919104546308517,-0.014112838543951511,0.002641956554725766,0.030758246779441833,-0.01976982317864895,-0.023706797510385513,-0.026383468881249428,0.02062254212796688,-0.032160207629203796,-0.017920203506946564,0.022354502230882645,-0.020945478230714798,0.027740517631173134,-0.01604635827243328,0.005375467240810394,0.0044038849882781506,-0.0012810219777747989,0.02083977311849594,0.028395773842930794,-0.022068724036216736,0.018616795539855957,0.008136327378451824,-0.001005971571430564,-0.02435421012341976,0.009845164604485035,0.024776699021458626,-0.029401175677776337,-0.03162400797009468,-0.033905111253261566,0.007072353735566139,-0.010474925860762596,-0.011119107715785503,0.031191186979413033,-0.010287637822329998,-0.02287212572991848,0.0029942321125417948,-0.019293304532766342,-0.0103038614615798,0.017999358475208282,0.007839222438633442,-0.023513058200478554,0.032138608396053314,0.021997928619384766,-0.024353500455617905,0.014332008548080921,0.012955475598573685,-0.02669382095336914,-0.02513362467288971,-0.029118908569216728,0.01441810093820095,0.005688095930963755,0.014357512816786766,-0.015072968788444996,0.025672897696495056,0.004079604521393776,-0.02841864340007305,-0.01047604251652956,0.01596163399517536,0.006278881337493658,-0.0063064321875572205,-0.024682896211743355,-0.022289568558335304,0.02882876619696617,-0.019889675080776215,0.024153269827365875,-0.011499625630676746,0.00030612750560976565,-0.03337559849023819,-0.011433014646172523,0.028028683736920357,-0.03157985210418701,0.016491960734128952,-0.029227882623672485,0.004486172925680876,-0.03142070025205612,-0.027355363592505455,-0.027785776183009148,-0.011925112456083298,0.004616482183337212,-0.025111766532063484,0.008637632243335247,0.020552679896354675,0.02771616540849209,0.029936937615275383,0.02205810509622097,-0.010303928516805172,-0.0032844406086951494,0.03027319349348545,0.0169951431453228,-0.009126030839979649,0.02578059956431389,-0.029927048832178116,0.029235564172267914,0.019101457670331,-0.02511935867369175,-0.027958989143371582,0.02664596401154995,0.033638957887887955,0.002878781408071518,-0.013458356261253357,0.01940160058438778,0.015376750379800797,-0.004311559721827507,0.027342699468135834,0.02213238924741745,0.008496429771184921,0.017728198319673538,-0.03206932172179222,-0.016060112044215202,0.0037143423687666655,0.009275691583752632,-0.004718821495771408,0.01284845732152462,0.010374832898378372,-0.031644053757190704,0.010753372684121132,-0.002811585320159793,-0.023565739393234253,0.001124017988331616,-0.008446469902992249,-0.01822742633521557,-0.031282175332307816,0.0284735094755888,-0.021029507741332054,0.004283553455024958,0.02719319611787796,-0.004434567876160145,-0.02245539054274559,-0.033112864941358566,0.00564665999263525,-0.017189251258969307,0.0024618597235530615,0.010861657559871674,-0.009827076457440853,0.022951046004891396,-0.004790184088051319,-0.014144626446068287,-0.023075202479958534,0.00998619757592678,-0.021702440455555916,0.006986800581216812,-0.004393712151795626,0.02343202941119671,-0.01680336892604828,-0.01689143292605877,-0.004517377819865942,-0.02106252871453762,0.012712216004729271,-0.013106632977724075,0.013447397388517857,0.019555119797587395,0.01951117441058159,-0.007404909003525972,0.018141141161322594,-0.01828274130821228,-0.034161608666181564,-0.0032976754009723663,-0.02484704740345478,-0.02657322771847248,0.008532220497727394,0.028756385669112206,-0.014033428393304348,-0.0021585794165730476,-0.02483493834733963,0.005289858672767878,0.008231081068515778,-0.006024239119142294,0.025756675750017166,-0.027626510709524155,-0.0046357461251318455,-0.019025450572371483,0.02998361364006996,0.02874985709786415,0.03312905132770538,0.03092697635293007,0.013531672768294811,-0.02604784071445465,-0.02397484891116619,0.006901838816702366,-0.031217942014336586,0.021425455808639526,0.014798052608966827,0.008119884878396988,-0.02988348715007305,0.024782473221421242,-0.003989668097347021,-0.01488672848790884,0.017211221158504486,0.002877915743738413,-0.015327135100960732,0.007170890923589468,-0.023615341633558273,0.03138253092765808,0.02979596145451069,0.015729062259197235,0.01805940270423889,-0.034033600240945816,-0.01934591494500637,-0.03355700522661209,-0.01831492781639099,-0.028875989839434624,0.02487895078957081,0.017605559900403023,0.019445164129137993,-0.015556016936898232,0.025829598307609558,-0.00506078964099288,-0.00889112614095211,0.018382307142019272,0.02259529009461403,-0.025170065462589264,0.03152797371149063,-0.003938798792660236,0.008570629172027111,-0.03493456169962883,0.002517449203878641,-0.017574740573763847,-0.02165873721241951,-0.014514651149511337,-0.0002623245236463845,-0.00979061983525753,-0.021944642066955566,0.024429667741060257,0.009587426669895649,-0.033179741352796555,0.006541162263602018,0.008022494614124298,0.0005839896039105952,0.007460128981620073,-0.0033332163002341986,0.014555009081959724,-0.02439391426742077,-0.014717373996973038,0.025575486943125725,-0.02122485637664795,0.016740260645747185,0.031344298273324966,-0.03217528387904167,-0.015522117726504803,0.02896842546761036,-0.0024889286141842604,0.006354662124067545,0.004500410985201597,0.01384099293500185,-0.01427754107862711,0.004348496440798044,0.023256421089172363,-0.002919862512499094,-0.031410712748765945,0.011733374558389187,-0.009051701985299587,-0.007616063579916954,0.017552420496940613,0.005664200056344271,-0.020843379199504852,-0.015904784202575684,-0.005286583211272955,-0.00853419117629528,-0.0072949775494635105,-0.023408349603414536,0.024746783077716827,0.017707664519548416,0.006714912131428719,0.007684051990509033,0.003888543229550123,0.02543352171778679,0.007577686104923487,0.005112173035740852,-0.018875425681471825,0.011387201026082039,-0.03202851489186287,0.01075183879584074,-0.02967499941587448,-0.014183775521814823,0.017918476834893227,-0.020509378984570503,0.027093971148133278,-0.01904229074716568,0.032251231372356415,0.010395940393209457,-0.014977572485804558,0.020688381046056747,-0.030441556125879288,-0.021797213703393936,-0.021557075902819633,0.004366292152553797,0.0032219840213656425,-0.029555270448327065,0.032862164080142975,-0.0001880825002444908,-0.01844264566898346,0.0005905348807573318,-0.014972494915127754,0.009121707640588284,0.012044837698340416,-0.010091431438922882,0.0016682865098118782,0.020157035440206528,-0.022381849586963654,-0.0077634649351239204,-0.005185063928365707,-0.02277832292020321,0.0026228667702525854,0.001072710962034762,-0.027903402224183083,0.006711501162499189,0.032215047627687454,0.017443766817450523,-0.019445382058620453,0.0305155199021101,-0.024048779159784317,-0.017584675922989845,0.014961818233132362,0.027067283168435097,0.03249382972717285,0.02927367202937603,-0.01917024701833725,0.007292631082236767,-0.02216368354856968,-0.00018048447964247316,0.027282191440463066,0.016096998006105423,-0.03236817941069603,-0.015313209034502506,-0.02915504202246666,0.01588183268904686,-0.004480615723878145,-0.02515425533056259,-0.011182378977537155,0.010845925658941269,0.002726823789998889,0.031210554763674736,-0.0017242592293769121,0.009880206547677517,-0.01082571316510439,0.003171159652993083,0.0005811644368804991,0.029026802629232407,0.014101049862802029,-0.01963483728468418,-0.030575215816497803,-0.032781463116407394,-0.012644553557038307,0.003769764443859458,0.03095039539039135,-0.004026379436254501,0.01312332320958376,0.016903724521398544,-0.027323318645358086,-0.028848590329289436,0.012697461061179638,0.015780704095959663,-0.01607118733227253,0.005166978575289249,-0.03364770486950874,4.660188642446883e-05,0.007673251908272505,-0.0003516999422572553,-0.005816628225147724,0.014102555811405182,-0.010430852882564068,0.024309903383255005,-0.029899779707193375,-0.01978830061852932,-0.028692688792943954,-0.03107849322259426,0.02516774646937847,-0.008746800012886524,-0.027552427724003792,0.006378500256687403,-0.02653178945183754,0.001380577334202826,0.0154951810836792,-0.009060200303792953,0.01659879833459854,0.006619183346629143,-0.02770645171403885,0.006593604572117329,0.0219037514179945,-0.008106695488095284,0.002676019910722971,0.0031105445232242346,0.001551201450638473,0.007915661670267582,-0.033272821456193924,0.02454107068479061,0.013513203710317612,0.0036617221776396036,0.005732012912631035,-0.027944723144173622,-0.009922794997692108,-0.001628890517167747,0.007921192795038223,-0.019434073939919472,0.0023307621013373137,-0.01181786973029375,0.024107208475470543,-0.03044257126748562,0.00199864967726171,0.022470930591225624,-0.0270314309746027,-0.001557673211209476,0.015524781309068203,0.013650762848556042,0.0038772395346313715,0.013574602082371712,-0.02434545010328293,0.027802444994449615,-6.278319779084995e-05,0.02095797471702099,0.006055064499378204,-0.004786091856658459,0.014477281831204891,0.032037779688835144,0.03334391489624977,-0.029005616903305054,0.0019155998015776277,-0.024714630097150803,0.019674450159072876,0.023977359756827354,-0.02477068081498146,-0.002550500677898526,0.023085754364728928,0.022037051618099213,-0.025875670835375786,0.022507907822728157,-0.006444520317018032,-0.02928338013589382,0.006677480414509773,0.015806134790182114,0.02037358656525612,-0.02340659499168396,-0.024985121563076973,-0.02322096936404705,0.019160883501172066,-0.03014596365392208,-0.0005714165745303035,-0.010297724045813084,0.014712722972035408,0.006575544830411673,-0.017396338284015656,0.00584533903747797,0.031340885907411575,0.005552826914936304,-0.017026817426085472,0.0010665656300261617,-0.031451743096113205,-0.02202451601624489,-0.006441906560212374,-0.02140515111386776,0.028868047520518303,0.006546402350068092,0.026416556909680367,-0.007862872444093227,-0.004829073324799538,0.008550290949642658,-0.010247877798974514,-0.011736820451915264,-0.03362686187028885,0.025682218372821808,0.030862322077155113,-0.03399724140763283,-0.011488987132906914,-0.025992654263973236,-0.014046934433281422,0.025882627815008163,0.018204810097813606,-0.0027087179478257895,0.014538871124386787,0.010135370306670666,0.01859673112630844,-0.027553314343094826,0.010495676659047604,-0.032490428537130356,-0.022712474688887596,-0.012917089276015759,-0.0035705077461898327,-0.03271889686584473,0.0004097671480849385,0.005261844489723444,-0.01363854669034481,0.011019831523299217,0.029804285615682602,-0.0059455884620547295,-0.0183024350553751,-0.030418435111641884,-0.025176050141453743,-0.01916167326271534,-0.025084376335144043,-0.013249246403574944,0.01828545331954956,0.009973516687750816,0.03066934458911419,0.033976443111896515,-0.01237030141055584,-0.01347963884472847,0.004555446095764637,-0.027393465861678123,0.018240176141262054,-0.006836021784693003,-0.02908039465546608,-0.025540117174386978,-0.023264292627573013,0.009159207344055176,0.025787902995944023,0.02704879827797413,-0.009371036663651466,-0.01992712914943695,-0.01525900699198246,-0.0234769769012928,-0.009007320739328861,-0.03144640848040581,0.017298804596066475,-0.03260054439306259,-0.020951421931385994,0.022926336154341698,-0.025939641520380974,0.00781309325248003,0.02554321102797985,0.033707499504089355,0.017235130071640015,-0.009253737516701221,0.019439416006207466,-0.0015083176549524069,-0.011410746723413467,-0.0008657810394652188,0.007564644794911146,0.023192502558231354,0.013751651160418987,0.015384916216135025,0.004561391193419695,-0.001769924070686102,0.014303069561719894,0.008152913302183151,-0.03280949592590332,0.005308825056999922,-0.016259824857115746,-0.019994938746094704,0.011637448333203793,0.006298187654465437,0.0052874330431222916,-0.017870845273137093,0.014190001413226128,0.031308818608522415,0.003973842598497868,0.013948338106274605,-0.030081983655691147,0.02023683488368988,0.011482259258627892,0.014104676432907581,0.01240330096334219,-0.010386519134044647,-0.0025980102363973856,0.03228779137134552,0.02364075370132923,-0.025758523494005203,0.02639581821858883,0.03382020443677902,0.004411125555634499,-0.02675813063979149,0.006534284446388483,-0.007479410152882338,0.023517321795225143,-0.03384692221879959,0.007657723035663366,-0.0011351077118888497,0.0015718501526862383,0.02228369191288948,-0.0003718770167324692,-0.02786201238632202,-0.019932454451918602,-0.013717595487833023,0.0035744826309382915,0.013113743625581264,-0.006738976109772921,-0.01415555365383625,0.014734608121216297,-0.0334831140935421,0.02314090169966221,-0.005276297219097614,0.022651391103863716,0.02529764734208584,0.003641886170953512,0.010885631665587425,-0.019380120560526848,0.024424510076642036,0.019938090816140175,-0.005508401896804571,0.013111467473208904,-0.002018523868173361,0.026546839624643326,0.013435953296720982,0.02412809059023857,-0.03160974755883217,0.033113498240709305,0.012657265178859234,0.016587387770414352,0.007554824464023113,0.022382911294698715,0.03211989253759384,-0.0029917960055172443,-0.028114426881074905,0.03160834684967995,-0.006887044291943312,-0.016713732853531837,0.020749425515532494,0.019005177542567253,0.004574977792799473,-0.002177951391786337,-0.006606851704418659,0.03128506988286972,0.02076014317572117,0.020350955426692963,0.021792281419038773,-0.017917202785611153,0.00711938738822937,-0.029610952362418175,0.019824154675006866,-0.033989835530519485,-0.03427032008767128,-0.033881012350320816,0.02103407122194767,0.003526570973917842,5.139251152286306e-05,0.005421218927949667,-0.012961117550730705,-0.010403502732515335,-0.023050382733345032,-0.008366848342120647,-0.02103964053094387,0.0008507959428243339,0.02680804207921028,-0.02844991534948349,0.016461437568068504,-0.02572557143867016,-0.014357405714690685,0.0065887994132936,0.005845561157912016,0.02803053893148899,-3.5398501495365053e-05,-0.013037757948040962,-0.014175290241837502,0.001008822931908071,-0.025644822046160698,-0.026796432211995125,-0.01501479558646679,0.00015895192336756736,-0.02394782565534115,-0.0199932549148798,0.0241381898522377,0.031499575823545456,-0.010734348557889462,-0.029382921755313873,-0.013126731850206852,0.01374441385269165,0.011012415401637554,-0.010701773688197136,-0.030238159000873566,-0.01065087504684925,-0.008764591999351978,0.018814222887158394,-0.017377059906721115,0.02031867392361164,0.004689755383878946,-0.00575445918366313,-0.030538145452737808,0.03365018963813782,-0.0064657218754291534,0.020978135988116264,-0.018268046900629997,-0.03368180990219116,-0.027656633406877518,-0.01758638583123684,-0.011251404881477356,-0.005196955054998398,0.02853299118578434,-0.03155679628252983,0.01705106720328331,0.028727449476718903,2.7727421183953993e-05,-0.021899698302149773,-8.98299113032408e-05,0.006753553170710802,0.014511770568788052,-0.010577280074357986,-0.011969945393502712,-0.017044931650161743,-0.03350664675235748,0.011929698288440704,-0.025898152962327003,-0.0164460688829422,-0.0004010887641925365,0.02597433142364025,0.02917627990245819,-0.027185026556253433,0.027670348063111305,0.029844744130969048,0.026417871937155724,0.0007188355666585267,0.025717338547110558,0.015896495431661606,-0.02484051138162613,-0.01808594912290573,0.0006264258990995586,-0.024371089413762093,-0.0120283467695117,0.025254642590880394,0.012705987319350243,0.027728630229830742,-0.0011488653253763914,-0.020645808428525925,0.018858710303902626,0.00036970869405195117,0.004672701936215162,-0.01484992541372776,0.013980509713292122,-0.02528565376996994,0.026974013075232506,0.02868719957768917,0.009716862812638283,0.024234682321548462,0.019304150715470314,-0.014992105774581432,-0.03259837627410889,0.0014621082227677107,0.01934540830552578,-0.004165050107985735,0.0027649987023323774,0.02534300461411476,0.01409073919057846,0.02513769268989563,0.003943197894841433,0.0026988601312041283,-0.009012032300233841,-0.0066963741555809975,-0.019780024886131287,0.02080599032342434,0.028750617057085037,0.011707387864589691,0.0010656043887138367,-0.01116001047194004,-0.03372501581907272,-0.006359039805829525,-0.024543646723031998,-0.025673534721136093,-0.007060255855321884,-0.006905350834131241,0.006649084389209747,-0.025727296248078346,0.022940602153539658,-0.03193587437272072,-0.016087185591459274,-0.01276257261633873,0.0021765611600130796,0.014144422486424446,-0.00903159286826849,0.005257031414657831,-0.008279274217784405,-0.013351760804653168,-0.004653210286051035,0.006696093361824751,-0.033917609602212906,-0.024385904893279076,0.02667921781539917,0.01551128551363945,-0.0008701740298420191,0.001081710448488593,0.004706161562353373,0.00793179776519537,-0.023367585614323616,-0.009328855201601982,-0.031293705105781555,-0.02665863186120987,-0.006584173999726772,-0.004900773521512747,0.026569796726107597,0.005830211099237204,-0.005579899996519089,-0.0009519230807200074,0.019090525805950165,-0.010377209633588791,-0.00643768860027194,-0.006904909387230873,-0.027622833847999573,-0.004831555299460888,-0.03167598694562912,-0.018475841730833054,-0.022000374272465706,0.02519829198718071,-0.0317348875105381,0.03274891525506973,0.012707932852208614,-0.023189425468444824,0.028285477310419083,-0.007580452598631382,-0.0290124099701643,-0.004777008667588234,0.016916535794734955,-0.033153679221868515,-0.002643706975504756,0.013438034802675247,-0.013912223279476166,0.002355167642235756,-0.013872462324798107,-0.023244714364409447,0.02660847268998623,-0.024365190416574478,-0.00044463892118074,0.011331511661410332,-0.019142210483551025,0.01647934503853321,-0.02852795086801052,0.031909771263599396,0.014726697467267513,-0.005153888836503029,-0.029002400115132332,0.0001633933134144172,0.011620291508734226,-0.018737593665719032,-0.004363845102488995,-0.03413686901330948,-0.03430002182722092,-0.003840184072032571,0.02843872457742691,-0.0024199283216148615,0.009602055884897709,-0.01369309239089489,-0.010391459800302982,-0.003992513287812471,-0.018399644643068314,0.02053508721292019,0.02128620445728302,-0.026627808809280396,0.010441985912621021,-0.014205444604158401,-0.019770994782447815,-0.004823619499802589,-0.012310300953686237,-0.020442966371774673,0.005625248420983553,0.019793257117271423,-0.006160384975373745,-0.003179786028340459,0.0022782038431614637,-0.014716086909174919,0.018064143136143684,0.03152032941579819,-0.0031428353395313025,0.0019839773885905743,0.02598007768392563,0.02604667656123638,-0.026205696165561676,-0.01593870110809803,-0.03537512943148613,0.019800113514065742,0.025896375998854637,-0.012647881172597408,0.010900534689426422,0.008230299688875675,-0.029468348249793053,0.013541686348617077,0.015460513532161713,-0.0020059433300048113,0.00154142826795578,0.006733868271112442,0.023242421448230743,0.028166741132736206,0.0028384088072925806,0.012883811257779598,-0.009265604428946972,0.020229438319802284,-0.013528786599636078,-0.028240373358130455,0.015664488077163696,0.011003514751791954,0.0055559840984642506,0.012890608981251717,0.002091924427077174,0.00989098846912384,0.01158548891544342,-0.02135283872485161,-0.0032767776865512133,0.004798860754817724,-0.005313656758517027,-0.028808435425162315,0.003185132285580039,0.020370440557599068,-0.018961571156978607,0.0326988622546196,0.006048908457159996,0.012640893459320068,-0.01517475675791502,-0.03081919625401497,-0.014599756337702274,0.0005856960196979344,-0.015719791874289513,0.030407745391130447,-0.021913155913352966,-0.0230865441262722,-0.012430470436811447,0.030128158628940582,-0.01635982096195221,0.030405383557081223,0.014662085101008415,-0.007505690213292837,0.016254106536507607,0.01565679907798767,-0.017546411603689194,-0.007050749380141497,