-0.01732860878109932,-0.04529746249318123,-0.008325465954840183,0.02784608118236065,0.014348114840686321,-0.056168485432863235,-0.005783468950539827,0.01064120139926672,0.01138771791011095,0.04280134290456772,-0.026834867894649506,-0.0887782871723175,-0.025113403797149658,-0.02430073730647564,-0.09378606081008911,0.005803365726023912,-0.033984314650297165,0.07236983627080917,0.07787135988473892,0.07792886346578598,-0.04522844776511192,0.0029546695295721292,0.08687479048967361,-0.08538877964019775,0.048058781772851944,-0.04231894761323929,-0.03831915557384491,0.05946291238069534,-0.004706948529928923,-0.021203361451625824,0.06019961088895798,-0.029732873663306236,0.0917845368385315,0.005470318719744682,0.04049026593565941,0.08681048452854156,-0.03761289641261101,0.05262435972690582,0.02256005071103573,-0.08495009690523148,0.12224634736776352,0.06785073131322861,0.0014417222701013088,0.03738032281398773,-0.029642688110470772,-0.012142706662416458,0.006348936352878809,0.026629673317074776,0.020775724202394485,0.09353264421224594,0.08067955076694489,0.055551886558532715,-0.04014220088720322,-0.03457258269190788,-0.08120148628950119,0.044701676815748215,0.09324637055397034,0.0338410884141922,0.0913286954164505,-0.07419171929359436,-0.09717129915952682,0.038633838295936584,-0.04785720631480217,0.08093253523111343,-0.0032803888898342848,0.014396087266504765,0.0351247601211071,-0.07833278924226761,-0.01984873041510582,0.06713032722473145,-0.03063337504863739,0.024799155071377754,-0.04995244741439819,0.018187353387475014,-0.0476369671523571,-0.02109425887465477,0.05551646277308464,-0.0018643519142642617,0.060843441635370255,0.05695745348930359,0.08227572590112686,-0.020929226651787758,0.02169271931052208,0.024905724450945854,-0.05896506458520889,0.05274296924471855,-0.06107724830508232,-0.07855876535177231,0.09966962039470673,0.01435178890824318,0.06848283857107162,0.08790559321641922,-0.08322501927614212,-0.08532972633838654,0.020857829600572586,0.016609881073236465,-0.0024354695342481136,-0.06197746470570564,0.024048376828432083,0.05160638317465782,-0.07004676759243011,0.06549942493438721,-0.0068474337458610535,0.08807095885276794,0.0011893704067915678,0.023022625595331192,-0.055641550570726395,-0.030734870582818985,0.015144958160817623,0.01305360160768032,0.06709256768226624,-0.06139274314045906,0.02120927721261978,-0.051889799535274506,-0.021068310365080833,-0.06692596524953842,0.07624413818120956,0.06486682593822479,-0.0900266021490097,-0.08169956505298615,0.030549749732017517,-0.07528769224882126,-0.046660371124744415,-0.10110469907522202,-0.07212669402360916,0.07107613235712051,-0.059629179537296295,0.06174713000655174,0.026064230129122734,-0.06589087098836899,-0.024006640538573265,-0.00640597240999341,0.05807781219482422,-0.09585927426815033,0.0793573409318924,-0.09580453485250473,-0.07364426553249359,-0.06725367903709412,0.028993824496865273,-0.07046346366405487,-0.08794596046209335,0.033712238073349,-0.07736140489578247,-0.07173214107751846,0.08674503862857819,0.05625252053141594,-0.08254527300596237,0.023425955325365067,0.012634368613362312,0.05335957929491997,0.051133643835783005,0.09744396060705185,0.024157026782631874,0.01098079513758421,-0.011382442899048328,0.023723091930150986,-0.03146490827202797,0.07660559564828873,0.0876346006989479,-0.012434507720172405,0.022496169432997704,-0.07841154932975769,-0.07550184428691864,-0.07061637192964554,-0.018853729590773582,0.05945120006799698,-0.004597258288413286,-0.08271438628435135,0.025797054171562195,0.05660330131649971,-0.08436286449432373,-0.09362616389989853,-0.04859489947557449,0.024153266102075577,0.02728540450334549,-0.05954308807849884,0.016746368259191513,-0.01660884916782379,-0.009078450500965118,0.09186453372240067,0.03461091220378876,-0.0064456285908818245,0.014185440726578236,-0.05195091664791107,0.07488387823104858,-0.008056482300162315,0.04126550257205963,-0.03720521926879883,0.02378334291279316,0.038738541305065155,0.05022485554218292,-0.016911422833800316,-0.05331403389573097,0.025959057733416557,0.07481832057237625,-0.03408176824450493,-0.01255635917186737,0.012013488449156284,0.05300644785165787,0.027406979352235794,-0.0249477606266737,0.02998993918299675,-0.03489141911268234,-0.030962908640503883,0.082443468272686,-0.08011545985937119,-0.09072071313858032,-0.005500349681824446,-0.09017407894134521,-0.007697704713791609,0.06062287092208862,-0.013251705095171928,0.009137994609773159,0.08304257690906525,-0.06504566222429276,0.06872507929801941,0.07235464453697205,0.03134609013795853,0.06420599669218063,-0.0741613581776619,0.01605231687426567,-0.015317365527153015,-0.05089179798960686,0.02528768591582775,-0.0981658548116684,0.08524506539106369,-0.09392067044973373,0.09599369764328003,0.027558598667383194,0.07180038094520569,-0.055747922509908676,-0.05422785505652428,0.022276131436228752,-0.06675154715776443,-0.06573948264122009,-0.09723027795553207,0.05719668045639992,-0.003131647827103734,0.07267607748508453,0.08340169489383698,0.02391541376709938,0.037632305175065994,-0.04945359751582146,0.03162377327680588,-0.012555980123579502,-0.09619462490081787,0.019695719704031944,-0.09933650493621826,-0.09994383156299591,-0.07001789659261703,-0.040173545479774475,-0.08645109087228775,0.027873987331986427,-0.08842721581459045,0.01813773438334465,-0.069055937230587,0.055630993098020554,0.062465600669384,0.0035343763884156942,-0.0969143956899643,0.05555659532546997,0.04899493232369423,-0.08865414559841156,0.030942972749471664,-0.08536970615386963,-0.0788220688700676,-0.015383554622530937,-0.060335613787174225,-0.038678597658872604,0.06581901013851166,-0.029458709061145782,0.021047009155154228,-0.08340515196323395,0.004102010745555162,0.03553503006696701,-0.0923008844256401,-0.04172327369451523,-0.01776719093322754,-0.08944879472255707,-0.03938853368163109,0.08419100940227509,0.09792152792215347,0.09886937588453293,0.09863906353712082,0.08884524554014206,-0.07590815424919128,0.04507265239953995,-0.08872240781784058,0.06142765283584595,-0.023685848340392113,0.08319660276174545,-0.002310847630724311,-0.015200943686068058,0.05710255354642868,0.08791365474462509,0.03350646048784256,0.01515475008636713,0.05394187569618225,-0.06977139413356781,-0.0037408187054097652,-0.003558235475793481,-0.07056189328432083,0.02834242582321167,0.012566039338707924,-0.022268202155828476,0.007458941545337439,-0.09256034344434738,0.07669516652822495,-0.024872424080967903,0.06786612421274185,-0.07795947045087814,0.02044949121773243,-0.04670986533164978,-0.0927480086684227,0.09110158681869507,0.027121378108859062,-0.03335516154766083,0.0512014701962471,-0.08140221238136292,0.09445066004991531,-0.0685078501701355,-0.01620272919535637,0.030351655557751656,-0.09828266501426697,0.05671767145395279,0.0028396588750183582,-0.033973779529333115,0.04493028670549393,-0.0517374612390995,-0.023432288318872452,-0.0596843846142292,-0.023145943880081177,-0.04024007171392441,-0.04321540147066116,0.03409652039408684,0.03561260923743248,-0.08159670978784561,-0.0008562188595533371,0.06628209352493286,-0.04380112886428833,0.027450136840343475,-0.071784108877182,0.0838095024228096,0.023043470457196236,-0.04425204172730446,0.0716933086514473,0.009628994390368462,0.02955762669444084,-0.05601360648870468,0.002367753069847822,-0.05713013932108879,0.06917725503444672,0.06767614930868149,-0.04968041554093361,-0.004413819406181574,0.02100067026913166,0.03590282425284386,-0.05153163895010948,0.012177009135484695,0.04872714728116989,-0.0937780886888504,-0.019954213872551918,0.030876656994223595,0.0667327269911766,-0.022899117320775986,-0.06390947103500366,0.015427852980792522,0.015509736724197865,0.09669946879148483,0.06842892616987228,-0.011528472416102886,-0.012556246481835842,0.01813262701034546,-0.09613378345966339,0.07044808566570282,0.05314505100250244,0.04596110060811043,-0.06811803579330444,0.005401143338531256,0.07032768428325653,0.0540030337870121,-0.041503723710775375,-0.026788733899593353,-0.06405568867921829,0.007459152955561876,-0.09573335945606232,0.07569495588541031,-0.027318669483065605,0.06466797739267349,-0.030856365337967873,0.0970672070980072,-0.06691230833530426,0.05845769867300987,-0.003932786639779806,0.022636253386735916,0.012406479567289352,-0.06776353716850281,0.09892105311155319,0.0602559819817543,0.04365886002779007,0.08238399773836136,-0.023026062175631523,0.035302672535181046,-0.04030940309166908,0.031681545078754425,-0.07040147483348846,0.06961154192686081,0.03962137550115585,-0.010682315565645695,-0.022413933649659157,0.06832922250032425,0.06480284035205841,-0.09747888147830963,-0.051475439220666885,0.01540765818208456,-0.0032574792858213186,0.07815822958946228,-0.07422559708356857,-0.07289985567331314,-0.03137021139264107,0.0562063492834568,0.05400177091360092,-0.05093853548169136,-0.029501860961318016,0.0807388424873352,-0.04866921901702881,0.09358887374401093,-0.05499981716275215,-0.011788513511419296,-0.07577090710401535,-0.07581620663404465,0.044102683663368225,0.05281323939561844,0.0876917839050293,0.09149691462516785,0.08032393455505371,-0.037549808621406555,-0.023295337334275246,0.009698139503598213,-0.07998033612966537,-0.09726940095424652,0.05997101962566376,0.07591090351343155,-0.0583038292825222,-0.08740182965993881,0.075101837515831,-0.014117381535470486,-0.08210527896881104,0.0261832308024168,0.013726518489420414,0.007714895997196436,0.04368318244814873,0.06601626425981522,-0.09985566884279251,0.09480153769254684,-0.03251836076378822,-0.06756478548049927,0.01764046959578991,-0.06657249480485916,-0.03333226591348648,0.07220184803009033,-0.008339524269104004,-0.04588167369365692,-0.05004320666193962,0.04281269386410713,-0.027788257226347923,-0.08085626363754272,0.09800267219543457,0.06370559334754944,-0.08630381524562836,0.009874348528683186,-0.007873179391026497,0.0939568430185318,-0.0021723725367337465,0.0006657292251475155,0.019577473402023315,-0.05327359959483147,0.001137294340878725,-0.07398111373186111,-0.06829611212015152,-0.09667591005563736,-0.06731217354536057,-0.04980159550905228,0.012685312889516354,0.06653893738985062,-0.019815297797322273,0.066490039229393,0.0773000717163086,-0.07994570583105087,-0.048678021878004074,-0.029610466212034225,0.07142297923564911,0.09207724779844284,-0.07158032059669495,-0.00425857724621892,0.0786108672618866,0.050903335213661194,-0.023652445524930954,0.036961305886507034,0.055650494992733,-0.06546562910079956,-0.08573448657989502,-0.025565192103385925,0.016059132292866707,-0.07791607081890106,0.06598155945539474,0.05777937173843384,-0.025666246190667152,-0.08726652711629868,-0.09052719175815582,0.06485431641340256,0.02195214107632637,-0.09134827554225922,0.007743056397885084,0.009616010822355747,0.03916796296834946,0.011097165755927563,-0.0984298512339592,0.09281127899885178,0.006962553132325411,0.06362602114677429,0.0368383415043354,-0.03476761654019356,-0.03392116352915764,0.035889070481061935,-0.06555351614952087,-0.019903523847460747,0.05434534698724747,0.012291993014514446,-0.09088291972875595,0.038800034672021866,-0.044816892594099045,-0.07644090056419373,0.03937902674078941,-0.05204850062727928,-0.08972077816724777,0.07140933722257614,-0.07499029487371445,0.07468026131391525,-0.09433068335056305,0.0355483703315258,-0.07598954439163208,0.07282068580389023,-0.029093673452734947,0.0535019189119339,-0.07918808609247208,0.08810125291347504,0.06643766909837723,0.057553283870220184,-0.049150820821523666,0.02243327535688877,0.012424432672560215,0.08847502619028091,-0.062006689608097076,0.06989476084709167,-0.01322190836071968,0.030835265293717384,-0.07000722736120224,-0.0805269181728363,-0.010818924754858017,0.03242756053805351,-0.08346661925315857,0.026548976078629494,-0.08774304389953613,0.05574241653084755,-0.03524591028690338,-0.08746076375246048,0.06323771923780441,0.03979509696364403,0.012058059684932232,0.09818827360868454,-0.06790712475776672,0.062028009444475174,-0.03907223790884018,-0.024243108928203583,0.04322942718863487,-0.006669559050351381,0.06343293935060501,-0.012921025976538658,-0.04139791429042816,-0.05852441117167473,-0.058246541768312454,0.021818768233060837,0.05440962687134743,0.008742249570786953,-0.0703999474644661,0.006094332318753004,0.053652212023735046,0.06963301450014114,-0.07519198954105377,0.04195958003401756,-0.06370491534471512,0.08880972117185593,0.0855523869395256,0.05474504828453064,-0.06521977484226227,-0.01587778702378273,-0.0021592017728835344,0.010008491575717926,0.010863776318728924,0.06512709707021713,0.02859022282063961,0.09108886867761612,-0.035147104412317276,0.011513045988976955,-0.06868800520896912,0.07493942975997925,-0.09815757721662521,0.015072382986545563,0.0005431898753158748,-0.060333915054798126,0.033076874911785126,-0.05568089336156845,-0.06682824343442917,0.08779685944318771,0.025598550215363503,-0.012183165177702904,-0.07874391973018646,0.078351691365242,0.011882832273840904,-0.06384258717298508,-0.09889166802167892,0.10483952611684799,-0.008047363720834255,0.08550296723842621,0.030310124158859253,0.04281565919518471,0.09453292191028595,0.015236654318869114,-0.051441699266433716,0.03513994812965393,0.08452770859003067,0.06865539401769638,0.017034469172358513,0.001749421120621264,-0.003552985843271017,-0.06872229278087616,0.026602517813444138,0.012972014024853706,-0.05385288968682289,0.06677308678627014,-0.09762586653232574,-0.08577141165733337,0.08907145261764526,-0.014227932319045067,-0.09320244938135147,-0.017497235909104347,-0.07224396616220474,0.07232271134853363,0.057670556008815765,0.07801062613725662,0.09088457375764847,0.033270251005887985,0.027912655845284462,0.04582151025533676,-0.052053555846214294,-0.008798603899776936,-0.00022164075926411897,-0.05309532582759857,-0.011182121932506561,-0.003928537014871836,0.00032683328026905656,0.019173376262187958,-0.04374124854803085,0.09584232419729233,0.035764921456575394,-0.017451347783207893,-0.06429244577884674,-0.060246098786592484,0.04721192270517349,-0.07615390419960022,-0.03208344057202339,-0.04664064943790436,-0.016523029655218124,-0.07443390041589737,-0.03558637946844101,-0.042094651609659195,0.008631424978375435,0.0073747518472373486,-0.04390188679099083,0.019488723948597908,-0.05229157581925392,-0.02047421596944332,-0.04185321554541588,-0.07782767713069916,-0.00776201905682683,0.004211504478007555,0.07005303353071213,-0.042296431958675385,-0.023835789412260056,0.09229939430952072,-0.019936155527830124,0.0749356597661972,-0.005837506148964167,0.05254547297954559,-0.08758990466594696,-0.09134723991155624,0.09286949038505554,0.06727441400289536,0.03805750235915184,-0.036850422620773315,0.0982004925608635,0.015283836051821709,-0.00518791563808918,0.02772403694689274,0.0613127239048481,-0.04370829090476036,0.06045112386345863,-0.08421213924884796,-0.08951880037784576,-0.04788161814212799,-0.09273318946361542,-0.0512334443628788,0.0018649955745786428,0.0937882736325264,-0.07431850582361221,0.0850817859172821,0.02030804567039013,-0.007234044373035431,0.008558301255106926,-0.07054377347230911,-0.08553029596805573,-0.007321688812226057,0.013904751278460026,-0.05496934801340103,-0.033732786774635315,0.08633480966091156,-0.07329554110765457,0.0803593248128891,0.009696602821350098,-0.08918282389640808,-0.01445995643734932,-0.05811529606580734,0.046785272657871246,0.07219599932432175,-0.04733740910887718,-0.05523092299699783,-0.004357158672064543,-0.021018823608756065,0.03392879664897919,0.0649082139134407,0.042420145124197006,0.06873608380556107,0.04372728243470192,-0.054532427340745926,-0.09035889059305191,-0.09605591744184494,0.08858071267604828,-0.00682801241055131,-0.07434983551502228,0.0810282975435257,0.03938499465584755,-0.04663130268454552,-0.02348547801375389,0.00020974717335775495,0.08977449685335159,-0.06981916725635529,0.05148933827877045,-0.04665892943739891,0.053063757717609406,0.0916202962398529,0.015310238115489483,-0.027715910226106644,-0.09944440424442291,0.0532865896821022,0.05755634978413582,-0.013233347795903683,-0.07855796813964844,-0.01785319857299328,0.06321325153112411,-0.08914493769407272,-0.08752226084470749,-0.06354091316461563,0.00805614423006773,0.07669811695814133,0.08789844065904617,0.07842107862234116,-0.03069806471467018,0.020569851621985435,0.057518456131219864,-0.01364162378013134,0.07330191880464554,0.03494036942720413,-0.07266092300415039,-0.07495847344398499,0.0050492179580032825,-0.10376229137182236,-0.049392711371183395,0.010584567673504353,0.048479899764060974,-0.06756525486707687,-0.06811896711587906,-0.034799616783857346,0.09835954755544662,-0.032097168266773224,0.09212160855531693,-0.05919397249817848,-0.051135577261447906,0.046961478888988495,0.0036584041081368923,-0.043689191341400146,0.01835498958826065,-0.057490214705467224,-0.0022257198579609394,-0.01885167509317398,0.00854307971894741,0.05742040276527405,-0.08060014247894287,0.013851327821612358,0.03225724399089813,-0.008417879231274128,0.07458651810884476,0.0962674468755722,0.0733519122004509,0.04111272096633911,0.023917770013213158,-0.0018108534859493375,-0.03922238573431969,0.09748314321041107,-0.014898555353283882,0.008244638331234455,-0.0692252442240715,-0.04401132091879845,0.028289686888456345,-0.06898508965969086,-0.04621273651719093,0.0557565875351429,-0.08905281871557236,-0.07525340467691422,0.03145821765065193,0.010923684574663639,0.004346436820924282,0.09666711091995239,-0.043412987142801285,-0.09011281281709671,0.09362904727458954,-0.02215072512626648,-0.03792114183306694,0.013505721464753151,-0.0902334675192833,-0.0661422461271286,0.02533530257642269,0.052386604249477386,-0.02621125616133213,-0.08574879169464111,-0.07806092500686646,0.009857877157628536,-0.08540304005146027,0.09189770370721817,0.09358473122119904,-0.0013955178437754512,-0.03266528248786926,0.06227372586727142,-0.09626991301774979,-0.04338214173913002,0.0190840195864439,0.028351474553346634,-0.03955730050802231,-0.006445569917559624,0.03496351093053818,-0.0247659794986248,-0.024218028411269188,0.0005388010176829994,-0.08356887847185135,0.03269239887595177,-0.05584900453686714,0.09100194275379181,-0.09486055374145508,0.04092125594615936,0.0852878987789154,-0.04260411486029625,-0.06610304862260818,0.0795382633805275,-0.03760410472750664,-0.05804404616355896,0.05352272838354111,0.04446492716670036,0.044549617916345596,-0.08586853742599487,-0.040343236178159714,0.08537042886018753,0.09520535171031952,-0.07653647661209106,-0.0658750832080841,-0.09235690534114838,0.07584699988365173,0.07730506360530853,0.02368970401585102,0.06302358955144882,-0.0037866421043872833,-0.07951360940933228,-0.01098213717341423,0.013859000988304615,0.018374554812908173,-0.009353871457278728,-0.05024968460202217,0.011075806804001331,0.0958782285451889,0.026990661397576332,-0.09112754464149475,-0.06326994299888611,0.00390790356323123,-0.0825381800532341,0.09501467645168304,-0.09370825439691544,0.06401585042476654,0.09949597716331482,-0.0069640823639929295,-0.05608701705932617,0.08473039418458939,0.08682630956172943,0.08360840380191803,-0.08590968698263168,-0.03417156636714935,-0.065137580037117,-0.04845544695854187,-0.09389110654592514,-0.06877897679805756,0.03403486683964729,-0.0916164442896843,0.034409716725349426,0.011392614804208279,-0.03504083305597305,0.043619439005851746,-0.03310263156890869,0.005055401939898729,-0.06507816910743713,0.044664960354566574,-0.023821957409381866,-0.014472030103206635,-0.018072830513119698,-0.07226904481649399,-0.08017068356275558,0.021848181262612343,-0.08666606992483139,-0.04327291622757912,-0.0175978634506464,-0.05679036304354668,0.026948638260364532,0.043418239802122116,0.0415131039917469,0.02410873770713806,0.06058799847960472,0.010885183699429035,0.004799806512892246,-0.03933664783835411,-0.07945438474416733,0.012612350285053253,-0.09200915694236755,-0.08402485400438309,0.054410457611083984,0.016354378312826157,0.0075462982058525085,-0.08327788859605789,0.029549572616815567,0.01476143579930067,0.08091790974140167,0.007132482249289751,0.07147318124771118,-0.09312400966882706,0.06267094612121582,-0.015312477014958858,0.05283261835575104,-0.07539208978414536,0.020115282386541367,0.05523556098341942,0.011590568348765373,-0.022623812779784203,-0.0008724565850570798,0.09852606803178787,-0.008967920206487179,-0.022791380062699318,0.08561038970947266,0.019874995574355125,-0.027727371081709862,-0.01634856127202511,-0.0916394367814064,0.09965480864048004,-0.06639233976602554,-0.06135588511824608,0.05042002350091934,0.05675133317708969,-0.03946302458643913,0.06726769357919693,0.06378976255655289,0.0476965606212616,0.0633978396654129,0.06613852083683014,-0.03458232805132866,0.06616049259901047,0.06733512133359909,-0.0924723893404007,-0.07509666681289673,-0.010813775472342968,0.007861253805458546,-0.06804396957159042,0.004052371717989445,0.07132275402545929,0.05134981498122215,-0.04888559505343437