-0.444221556186676,0.8010178804397583,-0.9374754428863525,-0.6993978023529053,0.02884376049041748,-0.7244747877120972,0.6994924545288086,0.3779749870300293,0.743445634841919,0.5938864946365356,0.6020170450210571,-0.794481098651886,-0.5468494892120361,-0.6232865452766418,0.09412682056427002,0.34420764446258545,0.02796328067779541,0.8297927379608154,-0.4916535019874573,-0.5959452390670776,0.07427442073822021,-0.8757144808769226,0.18378067016601562,0.002094745635986328,0.4837228059768677,-0.3936295509338379,0.7700295448303223,-0.27752673625946045,0.10192584991455078,-0.18037551641464233,-0.47601449489593506,-0.4802786111831665,-0.30653315782546997,-0.41225743293762207,0.20536768436431885,0.462909460067749,0.29443860054016113,0.10735023021697998,-0.23222297430038452,0.49509406089782715,0.129638671875,-0.5305326581001282,0.7016222476959229,-0.890857458114624,0.0015746355056762695,-0.3176899552345276,0.11405420303344727,-0.30721813440322876,0.8590542078018188,-1.0,0.198805570602417,-0.07490283250808716,0.23284471035003662,0.246209979057312,-0.09652566909790039,-0.6716015338897705,0.22227394580841064,0.048674941062927246,0.7569142580032349,-0.17685216665267944,0.5791579484939575,0.09124481678009033,-0.03490215539932251,-0.8547173142433167,0.3009587526321411,-0.34954214096069336,-0.18134146928787231,0.7636311054229736,1.0,-0.3082582950592041,-0.177182137966156,0.6708195209503174,-0.42714470624923706,-0.6155803203582764,0.7647323608398438,-0.007933437824249268,-0.5896117091178894,0.5428351163864136,0.18069517612457275,-0.930406928062439,0.24642133712768555,-0.4116916060447693,-0.10742449760437012,0.67454993724823,-0.11683648824691772,0.2397862672805786,-0.25366270542144775,-0.5562704801559448,-0.25061362981796265,0.10762226581573486,0.03650987148284912,0.1442418098449707,0.55134117603302,-0.6163234710693359,0.48220276832580566,0.19030249118804932,-0.5963131785392761,-0.042262136936187744,0.014806032180786133,-0.5184869766235352,-0.21865594387054443,0.1867302656173706,-0.029046833515167236,0.29997527599334717,-0.2535759210586548,0.3419957160949707,-0.5442206263542175,-0.10423338413238525,0.15752339363098145,-0.040315330028533936,0.2574506998062134,0.3251497745513916,-0.2411680817604065,0.447046160697937,-0.0705026388168335,0.11378276348114014,-0.16840434074401855,0.03169429302215576,-0.4272969365119934,0.06787478923797607,-0.06711840629577637,0.4913278818130493,-0.5209639072418213,0.7008646726608276,-0.4144328236579895