0.4293311834335327,0.4972376823425293,0.4776608943939209,-0.8003804683685303,-0.42889857292175293,-0.9268670082092285,0.40922868251800537,-0.5842715501785278,-0.6799348592758179,-0.8754381537437439,-0.10294914245605469,-0.5232093930244446,-0.0099717378616333,0.614365816116333,0.45147860050201416,0.5270085334777832,0.41674768924713135,-0.12674427032470703,-0.04137676954269409,0.9065301418304443,0.37625014781951904,-0.31455177068710327,-0.18633300065994263,0.5825231075286865,-0.13717466592788696,0.08608746528625488,0.04746222496032715,-0.6627629399299622,-0.9105338454246521,-0.10354602336883545,-0.17606228590011597,-0.08191680908203125,-0.23959600925445557,0.8524357080459595,-0.6407377123832703,0.018035173416137695,0.41112077236175537,0.6211162805557251,0.42438817024230957,-0.05303609371185303,-0.043017685413360596,-0.3599625825881958,-0.0998917818069458,-0.24474620819091797,-0.3900430202484131,0.7220853567123413,-0.13500767946243286,0.0129011869430542,-0.8738345503807068,-0.8409552574157715,-0.8639228343963623,-0.35597121715545654,-0.9011623859405518,0.6296730041503906,-0.7735432982444763,0.5166431665420532,-0.5205352306365967,-0.7550976276397705,-0.3948974013328552,-0.11354345083236694,0.014396190643310547,-0.08165687322616577,0.0915977954864502,0.1177147626876831,0.15148115158081055,-0.8631155490875244,-0.19177299737930298,-0.11115652322769165,-0.5997018814086914,0.13094091415405273,0.038042426109313965,-0.18297821283340454,0.16599833965301514,0.22043824195861816,0.493804931640625,0.31454145908355713,0.03631770610809326,-0.17633819580078125,0.14736521244049072,-0.07594537734985352,-0.5568579435348511,-0.4226495623588562,0.7101974487304688,0.6892015933990479,-0.3881514072418213,-0.10977470874786377,-0.5628769993782043,-0.8559854626655579,-0.41430097818374634,0.20220685005187988,-0.3418412208557129,-0.7926779985427856,0.04589569568634033,0.532646894454956,0.48505425453186035,0.07577657699584961,-0.7795431017875671,0.7547512054443359,-0.5986723899841309,0.1663212776184082,-0.6918359994888306,0.8169244527816772,0.3594716787338257,0.6951284408569336,0.43605780601501465,0.8039661645889282,-0.056487083435058594,-0.5904046893119812,-0.23940742015838623,-0.7710209488868713,0.07068789005279541,-0.7888824939727783,0.3058488368988037,-0.5045084357261658,-0.5916929244995117,0.09155881404876709,-0.5492434501647949,-0.24752432107925415,0.5107244253158569,0.05626845359802246,0.17509353160858154,0.5338221788406372,0.344205379486084,0.3258267641067505,0.6265238523483276,0.5451562404632568,0.7498859167098999,-0.9228818416595459,0.6038910150527954,0.09737515449523926,-0.743833065032959,-0.681131899356842,0.6979933977127075,-0.33164310455322266,0.20667850971221924,0.7542800903320312,-0.3476077914237976,-0.5100924372673035,-0.24136674404144287,-0.7539836168289185,0.24951231479644775,-0.7141101360321045,0.3896150588989258,0.7626727819442749,0.3671501874923706,0.5895837545394897,-0.7010599374771118,0.7595747709274292,-0.5047096014022827,-0.3396943211555481,0.82616126537323,-0.2646082043647766,-0.07255619764328003,-0.6518003344535828,-0.8650354146957397,-0.618023157119751,-0.28715795278549194,-0.5613321661949158,-0.3407513499259949,-0.6564836502075195,-0.6055172681808472,-0.5438748002052307,0.0665663480758667,0.2796591520309448,0.5321254730224609,0.23299062252044678,0.7200517654418945,-0.23025888204574585,-0.5159246325492859,0.5493608713150024,0.6591774225234985,0.49695539474487305,-0.631290078163147,0.7943476438522339,0.07138311862945557,0.0644376277923584,0.1752866506576538,-0.41971832513809204,-0.29382169246673584,-0.7852228879928589,-0.4645277261734009,0.4733971357345581,-0.7816445827484131,-0.38833409547805786,0.34506094455718994,-0.235304057598114,0.2418602705001831,-0.7466502785682678,-0.14697802066802979,0.34746062755584717,-0.8097395300865173,0.27248120307922363,0.3076540231704712,-0.24976354837417603,-0.23413819074630737,-0.23112261295318604,0.7895501852035522,-0.0427020788192749,0.07212507724761963,-0.8697574138641357,-0.19977128505706787,-0.20168685913085938,-0.8477823734283447,0.752689003944397,0.3891458511352539,-0.49123328924179077,-0.7386031150817871,0.23573076725006104,-0.17688435316085815,-0.6999049186706543,0.44217896461486816,-0.42319047451019287,0.44829678535461426,0.592654824256897,0.11332666873931885,-0.6434526443481445,0.11045300960540771,-0.23001903295516968,0.7313209772109985,0.3425889015197754,0.6599985361099243,0.7655478715896606,0.21549952030181885,-0.07559084892272949,-0.8885112404823303,0.25812828540802,-0.8547439575195312,-0.016075551509857178,0.0606616735458374,-0.6982524394989014,0.48417818546295166,0.7751514911651611,-0.16122794151306152,0.8146406412124634,0.05731856822967529,0.019490838050842285,-0.2752097249031067,-0.4050195813179016,-0.29798805713653564,0.5623023509979248,0.3686720132827759,-0.37685859203338623,0.626492977142334,-0.7097421884536743,-0.012048006057739258,0.17617452144622803,0.4473780393600464,0.5903764963150024,0.49929285049438477,-0.14734113216400146,-0.8337265849113464,0.20172250270843506,-0.751556396484375,-0.9072197675704956,0.39973747730255127,0.06260442733764648,-0.36741405725479126,-0.3504070043563843,-0.6458792090415955,-0.8939865827560425,0.26869308948516846,-0.3338692784309387,-0.48577582836151123,-0.4461527466773987,0.15544259548187256,0.1457730531692505,0.43894243240356445,-0.09186118841171265,-0.7346243858337402,-0.30512160062789917,-0.9946644902229309,-0.7270500659942627,-0.48763084411621094,-0.0359116792678833,-0.798987627029419,-0.7524329423904419,0.7748289108276367,0.10732817649841309,0.4710390567779541,-0.18060296773910522,0.645244836807251,0.3348703384399414,-0.7671312093734741,-0.6404038667678833,-0.8842558264732361,-0.30586791038513184,-0.22362273931503296,0.01549530029296875,-0.4830765128135681,0.3437478542327881,0.29242217540740967,-0.6992844343185425,-0.7729424238204956,0.7219657897949219,-0.33081990480422974,-0.7449748516082764,-0.022077739238739014,0.2258542776107788,-0.8034788370132446,0.16849350929260254,0.21894586086273193,0.5283329486846924,0.6247740983963013,0.6917227506637573,0.08591485023498535,-0.7144885659217834,0.45096254348754883,0.8079432249069214,-0.10483860969543457,0.6069756746292114,-0.13416308164596558,0.5438978672027588,-0.3381950259208679,-0.7362589836120605,0.595176100730896,-0.4247860908508301,-0.7514201402664185,-0.7606516480445862,0.3647221326828003,0.20464873313903809,0.5102329254150391,0.6344181299209595,0.3569185733795166,-0.8467512130737305,-0.8100795149803162,-0.28885436058044434,-0.6202773451805115,0.022269725799560547,0.24929821491241455,0.5540672540664673,-0.8865960836410522,-0.8347659707069397,-0.09626460075378418,0.6123926639556885,0.1776975393295288,-0.19493168592453003,-0.23252177238464355,0.6238124370574951,0.10215675830841064,-0.9287354350090027,0.40753769874572754,0.6260871887207031,-0.2872064709663391,-0.38250112533569336,-0.2793673872947693,0.38203608989715576,0.5141490697860718,-0.6921118497848511,0.3938138484954834,-0.9483111500740051,0.7355829477310181,0.10911035537719727,-0.7335420846939087,-0.4909784197807312,0.1307051181793213,-0.25504523515701294,-0.9191299676895142,0.4216275215148926,0.04864704608917236,-0.06088453531265259,0.24972212314605713,0.25702881813049316,-0.7970948219299316,-0.2749115824699402,0.11910605430603027,0.4428924322128296,0.19791674613952637,0.4303419589996338,0.059943199157714844,-0.01563119888305664,-0.58754962682724,-0.3652529716491699,0.3537478446960449,0.5184643268585205,0.5254002809524536,0.6601582765579224,0.43005692958831787,-0.693038821220398,0.19548845291137695,-0.84291672706604,-0.45746880769729614,0.06575667858123779,-0.561620831489563,-0.9287179112434387,-0.3189716935157776,0.7386766672134399,-0.7526960968971252,-0.21653228998184204,0.26189160346984863,-0.8751837015151978,0.4393646717071533,0.5399081707000732,0.7223118543624878,-0.5788558721542358,0.07752907276153564,-0.454054057598114,-0.04685717821121216,0.6729400157928467,0.052574753761291504,-0.5790185928344727,-0.130742609500885,0.5219882726669312,0.7446321249008179,0.07648909091949463,0.26236045360565186,0.32305192947387695,0.4522801637649536,-0.8520163297653198,0.2133646011352539,-0.10953766107559204,0.06893455982208252,0.6138949394226074,0.5587682723999023,-0.7908550500869751,0.8162384033203125,0.4498157501220703,-0.7125072479248047,0.4433702230453491,-0.29982990026474,0.38458311557769775,-0.6493628025054932,0.552790641784668,0.38073980808258057,-0.7347724437713623,-0.3547649383544922,0.05211472511291504,-0.9092128872871399,0.029451370239257812,0.20324909687042236,0.29447388648986816,0.42989253997802734,0.3720712661743164,0.22800838947296143,-0.571853518486023,0.5710334777832031,-0.017440736293792725,0.03252553939819336,-0.3510434627532959,-0.11870741844177246,0.20924293994903564,-0.10600095987319946,0.6878032684326172,0.4921247959136963,0.6748965978622437,-0.43623071908950806,-0.12489485740661621,-0.2738366723060608,0.11335504055023193,0.4683905839920044,0.40620601177215576,-0.20250165462493896,0.12229049205780029,-0.9817072749137878,0.569344162940979,0.6859840154647827,-0.45300978422164917,0.21013569831848145,-0.6842482089996338,-0.3925555944442749,-0.07747495174407959,-0.31546568870544434,-0.12741774320602417,0.4635571241378784,0.6973501443862915,-0.21755659580230713,-0.3031842112541199,-0.9922792911529541,-0.4632381200790405,-0.9271404147148132,-0.9069086313247681,0.06496214866638184,0.45107126235961914,0.1523205041885376,-0.9039099216461182,-0.26743924617767334,-0.2206706404685974,-0.1677454113960266,0.33208799362182617,-0.14494651556015015,-0.9401931166648865,0.10758805274963379,0.35022926330566406,-0.8179746270179749,-1.0,-0.35967332124710083,-0.9842494130134583,-0.1599634289741516,-0.014025330543518066,0.5306881666183472,0.6673555374145508,0.02708303928375244,0.6646616458892822,0.44461965560913086,0.6326782703399658,0.5294654369354248,0.29598546028137207,-0.25525975227355957,0.5746601819992065,0.15016508102416992,-0.015769898891448975,0.4817240238189697,-0.33352458477020264,-0.01424950361251831,-0.0406416654586792,-0.566802978515625,-0.3220186233520508,-0.2308347225189209,-0.2261143922805786,-0.6138924360275269,-0.13592934608459473,-0.44883638620376587,-0.4506794810295105,0.6911829710006714,-0.11811143159866333,-0.22895634174346924,0.27716195583343506,0.14799737930297852,-0.472165048122406,-0.9303945899009705,-0.31393396854400635,0.6105968952178955,-0.2728802561759949,-0.2787128686904907,0.6938207149505615,0.3543214797973633,-0.38353484869003296,0.7715966701507568,-0.4080292582511902,-0.8693358898162842,0.3656569719314575,-0.02146434783935547,0.34197068214416504,-0.6124390959739685,0.8139215707778931,0.618390679359436,-0.2890892028808594,-0.3722982406616211,-0.6025958061218262,0.3288533687591553,0.36935508251190186,-0.41526830196380615,-0.6168045997619629,-0.23075705766677856,-0.08322334289550781,0.8493064641952515,0.09389865398406982,-0.2440062165260315,0.11042582988739014,0.04897415637969971,0.5341359376907349,0.36158883571624756,0.02973020076751709,0.34864985942840576,-0.8844695091247559,0.7535496950149536,0.7909249067306519,-0.5910077095031738,-0.7914233803749084,-0.2758675217628479,-0.24644166231155396,-0.9244089126586914,-0.9145364165306091,0.01845550537109375,-0.39701342582702637,0.005859375,0.5542969703674316,0.1155247688293457,-0.5176728963851929,0.3934890031814575,0.42964446544647217,0.7481051683425903,-0.6956138014793396,0.7440050840377808,0.581694483757019,0.6855040788650513,-0.24032336473464966,-0.2967205047607422,-0.3168650269508362,-0.3333730101585388,-0.23167437314987183,0.550255298614502,0.8045188188552856,-0.8423256278038025,-0.2388569712638855,0.6112563610076904,0.6747167110443115,-0.30821824073791504,0.4619104862213135,0.29792356491088867,-0.4867725968360901,-0.3715497851371765,0.24986791610717773,-0.2996255159378052,-0.22731858491897583,-0.11840569972991943,-0.5846810340881348,0.21809959411621094,-0.6115607023239136,0.6743220090866089,-0.6955913305282593,-0.16795563697814941,-0.4699825048446655,-0.39041537046432495,-0.2690466046333313,-0.6751084923744202,0.4810866117477417,0.3818730115890503,-0.10318917036056519,0.3976396322250366,-0.07108694314956665,-0.6260449886322021,0.7013921737670898,-0.10898327827453613,0.05942666530609131,0.4315216541290283,0.7556368112564087,-0.5965549945831299,-0.6253952383995056,-0.8312335014343262,-0.48821520805358887,-0.25148385763168335,0.6436491012573242,0.22687780857086182,0.5323841571807861,0.42941880226135254,0.5937540531158447,-0.5956814289093018,0.4879540205001831,-0.3220270276069641,-0.5284931063652039,0.1677999496459961,0.13954317569732666,0.10289478302001953,-0.23129993677139282,0.5340617895126343,-0.44107216596603394,-0.4552510976791382,-0.08774757385253906,-0.24928849935531616,0.47067081928253174,0.6425491571426392,-0.7408763766288757,0.08126318454742432,0.540864109992981,0.02581954002380371,-0.18598008155822754,-0.9083017706871033,0.6600836515426636,-0.38082224130630493,0.43643736839294434,-0.7633097767829895,-0.6790411472320557,0.13124942779541016,0.6187599897384644,-0.5904155969619751,0.8107969760894775,0.5860440731048584,-0.5351627469062805,0.5873008966445923,-0.4116002321243286,-0.4912481904029846,-0.015827059745788574,-0.7195591330528259,-0.556874692440033,0.6413159370422363,-0.07904320955276489,0.4795159101486206,0.4173163175582886,-0.49880385398864746,-0.23856490850448608,0.27602076530456543,0.44538378715515137,-0.5522735118865967,0.3321239948272705,0.6051123142242432,-0.35707277059555054,-0.07311880588531494,-0.6357178092002869,0.6235536336898804,-0.5110558271408081,0.854642391204834,-0.22541135549545288,-0.5337050557136536,-0.602425217628479,-0.8641458749771118,0.8683819770812988,-0.8573324680328369,-0.860471248626709,-0.773237943649292,0.06166708469390869,0.21708738803863525,-0.7460678815841675,-0.5116410851478577,-0.41483932733535767,0.2451186180114746,0.546998143196106,0.45251381397247314,-0.23783785104751587,-0.8337217569351196,-0.1635444164276123,-0.6059885025024414,0.37000060081481934,-0.09724456071853638,-0.2755776643753052,0.8207064867019653,0.21327030658721924,-0.8538686633110046,-0.47091245651245117,0.7556723356246948,0.7331496477127075,0.6369971036911011,-0.2520318627357483,0.5345546007156372,0.114096999168396,-0.4616129398345947,-0.5832433700561523,-0.26126307249069214,0.8690621852874756,-0.22181904315948486,0.7647305727005005,0.24622201919555664,-0.8865537047386169,-0.17795562744140625,-0.5921764373779297,0.021311044692993164,0.4682612419128418,-0.8537315130233765,0.7724895477294922,-0.1841292381286621,-0.6094765663146973,0.11178898811340332,-0.3287544846534729,0.3944603204727173,-0.49859029054641724,0.25976884365081787,0.8044538497924805,0.5640114545822144,-0.342846155166626,0.4288066625595093,0.24146735668182373,2.2649765014648438e-05,0.024686574935913086,0.036025166511535645,-0.7676068544387817,0.011245012283325195,-0.2051507830619812,0.028605937957763672,0.8452070951461792,-0.11864078044891357,-0.7695115804672241,0.49208641052246094,-0.6598162651062012,0.1640028953552246,0.12861847877502441,-0.8441801071166992,-0.6827825307846069,-0.6224480271339417,0.5226496458053589,-0.9135681390762329,-0.47968870401382446,-0.38163650035858154,-0.6392894387245178,-0.06291592121124268,-0.03200197219848633,-0.6432788372039795,-0.4490085244178772,-0.8747780323028564,0.7577580213546753,-0.44801032543182373,0.18273937702178955,0.5194870233535767,-0.1805945634841919,-0.0006867051124572754,0.31617653369903564,-0.4006359577178955,0.820561408996582,0.28401505947113037,0.5685343742370605,0.02089667320251465,-0.016146421432495117,-0.15050005912780762,-0.6385932564735413,0.5467015504837036,0.6667623519897461,0.5310081243515015,0.4863513708114624,-0.38904017210006714,-0.43643951416015625,0.749147891998291,-0.7315322756767273,-0.008514106273651123,0.21296560764312744,-0.8028976917266846,0.7027679681777954,-0.41837769746780396,0.5981167554855347,-0.2013915777206421,0.39732611179351807,-0.0021965503692626953,-0.3266979455947876,-0.19548851251602173,0.1815863847732544,0.011221528053283691,-0.3502112627029419,-0.7561973333358765,0.14514994621276855,0.8776123523712158,-0.19669681787490845,0.34252357482910156,-0.04486173391342163,0.3610715866088867,-0.33490878343582153,-0.2613292336463928,-0.5756714344024658,0.04569661617279053,-0.6753124594688416,0.19797825813293457,-0.6341407895088196,-0.3606377840042114,-0.5356467962265015,-0.06800222396850586,-0.1075102686882019,-0.10361498594284058,-0.751899003982544,-0.29299038648605347,-0.2649783492088318,0.175634503364563,-0.5026482343673706,0.02829289436340332,-0.48566192388534546,0.7695404291152954,-0.814853310585022,-0.6480738520622253,0.09645628929138184,0.32457244396209717,0.815017580986023,-0.12104028463363647,-0.22191762924194336,-0.6172237396240234,-0.766869306564331,0.41242706775665283,-0.24809038639068604,-0.12176913022994995,0.739483118057251,-0.2122354507446289,-0.6669052839279175,-0.4805220365524292,-0.506266713142395,-0.36964893341064453,-0.6493898630142212,0.4953359365463257,0.1646183729171753,0.6511908769607544,0.5617465972900391,-0.39215630292892456,-0.8547523617744446,-0.2670421600341797,-0.6882981657981873,-0.3139305114746094,-0.44481760263442993,-0.4086720943450928,-0.11734896898269653,0.2705397605895996,0.24130654335021973,0.03810882568359375,-0.7632524967193604,0.021547555923461914,0.8200854063034058,-0.3106663227081299,0.10914349555969238,-0.271842360496521,-0.3580065965652466,0.039139509201049805,0.5052272081375122,-0.8839925527572632,-0.2230008840560913,0.19589567184448242,0.6718583106994629,0.2732142210006714,-0.05829918384552002,-0.6125004887580872,-0.17444974184036255,-0.21745634078979492,-0.6606637835502625,-0.15762048959732056,-0.6476352214813232,0.7342326641082764,-0.6368330717086792,-0.7580019235610962,-0.651591420173645,0.47323787212371826,-0.44918298721313477,0.5274451971054077,-0.37451428174972534,-0.07151472568511963,0.2636455297470093,-0.0778653621673584,-0.1349908709526062,0.49678993225097656,-0.6070103645324707,0.39929449558258057,0.6292909383773804,0.5835005044937134,0.20212137699127197,0.48226869106292725,0.655651330947876,0.0885552167892456,0.17886042594909668,0.6028194427490234,0.12818777561187744,0.24778378009796143,-0.3581896424293518,0.3258039951324463,-0.8788833022117615,0.6830233335494995,0.03418922424316406,-0.4575446844100952,0.11185765266418457,-0.6206251382827759,-0.3757554888725281,-0.10548156499862671,0.41871559619903564,0.7558939456939697,-0.02867412567138672,0.40513157844543457,0.06576645374298096,0.06973445415496826,0.15438687801361084,-0.5524896383285522,-0.0862191915512085,-0.45386672019958496,-0.824889600276947,0.7259376049041748,-0.14933013916015625,0.026471853256225586,-0.03833460807800293,0.12735342979431152,0.35294806957244873,-0.915611982345581,-0.9291389584541321,0.2239704132080078,-0.5086252689361572,-0.553376317024231,0.7040811777114868,0.7771227359771729,0.7660560607910156,0.5097758769989014,0.26289069652557373,0.3935246467590332,0.48116326332092285,-0.590050458908081,0.5169466733932495,-0.463684618473053,0.11443901062011719,-0.27689069509506226,0.2707315683364868,0.49664306640625,0.010495305061340332,-0.166087806224823,0.57033371925354,-0.4207577705383301,0.6406842470169067,-0.08823943138122559,0.05640089511871338,0.03257179260253906,-0.9272831082344055,0.8153729438781738,0.4360840320587158,0.6828534603118896,-0.6384546756744385,-0.15217441320419312,-0.16746985912322998,-0.47543424367904663,0.15535497665405273,-0.6189603209495544,-0.706149697303772,0.39282453060150146,0.5914673805236816,-0.5505261421203613,-0.34183597564697266,-0.14107781648635864,-0.26833653450012207,-0.6086026430130005,-0.1456729769706726,0.8385366201400757,-0.6088656783103943,-0.1213187575340271,0.5593781471252441,0.023415565490722656,-0.16963189840316772,0.3544487953186035,-0.060214102268218994,0.45632266998291016,0.3040386438369751,-0.1299729347229004,-0.38775724172592163,0.12781941890716553,-0.18236231803894043,0.03621387481689453,-0.35363632440567017,-0.45581603050231934,-0.3722487688064575,-0.8518563508987427,0.12670564651489258,-0.4235326051712036,0.017992615699768066,-0.7491146326065063,0.46986186504364014,-0.6289843320846558,0.18329691886901855,0.6011210680007935,-0.5582516193389893,0.9116777181625366,-0.267172634601593,-0.019965291023254395,0.5889859199523926,-0.551070511341095,0.020220518112182617,0.023159146308898926,-0.41605210304260254,0.09320223331451416,-0.4981030225753784,0.5665005445480347,-0.8973209261894226,-0.6492294073104858,-0.34632647037506104,0.5751539468765259,0.5215535163879395,-0.2510119676589966,0.38652515411376953,-0.8731648325920105,-0.35499393939971924,-0.748178243637085,0.6308125257492065,-0.563232421875,-0.15177929401397705,-0.7681604623794556,0.028403401374816895,-0.7197957038879395,0.5528510808944702,-0.7092006206512451,-0.260969877243042,0.013328790664672852,-0.647912859916687,-0.7277559638023376,-0.4183838963508606,0.7634168863296509,0.5522009134292603,0.07022655010223389,-0.4187883138656616,-0.636145830154419,0.20793986320495605,-0.3395155072212219,-0.5059415102005005,-0.42969805002212524,-0.6506843566894531,0.6454476118087769,-0.2957454323768616,-0.659597635269165,-0.5306286811828613,0.7465144395828247,-0.35268038511276245,0.41787004470825195,-0.8659513592720032,0.5546809434890747,0.3267519474029541,-0.35955244302749634,-0.528247594833374,-0.8406624794006348,0.15179157257080078,-0.4137943983078003,-0.12021738290786743,-0.3439745306968689,0.7841107845306396,-0.576823353767395,-0.7007284760475159,0.2415008544921875,-0.0033197402954101562,-0.2123546004295349,0.5235812664031982,0.14661991596221924,-0.058005690574645996,0.609810471534729,0.7307748794555664,-0.7776046991348267,-0.5044621825218201,0.45656776428222656,-0.7851909399032593,0.7763603925704956,0.3747076988220215,-0.11495715379714966,-0.6105517148971558,0.29962992668151855,-0.663690447807312,-0.7212422490119934,-0.2974342107772827,-0.20592552423477173,1.0,0.8386895656585693,-0.7559189796447754,-0.6090559959411621,-0.7058971524238586,0.7298774719238281,-0.6223257780075073,-0.23651093244552612,0.2012956142425537,0.21808254718780518,0.5018490552902222,-0.627518892288208,-0.38408583402633667,-0.07201045751571655,0.6625839471817017,0.7811801433563232,-0.44772934913635254,0.8023957014083862,0.500545859336853,0.8076949119567871,-0.04274642467498779,0.20259594917297363,-0.26309704780578613,-0.5225462913513184,0.34291863441467285,-0.673084557056427,0.7538615465164185,-0.6964588165283203,-0.6874223947525024,-0.18210512399673462,-0.6493237018585205,-0.2744777202606201,0.3668198585510254,-0.7690393924713135,-0.11575919389724731,0.10669875144958496,-0.04129624366760254,0.2620375156402588,-0.545379102230072,0.13804233074188232,0.288307785987854,0.3348994255065918,0.06408083438873291,0.13862740993499756,0.25858259201049805,0.03431856632232666,0.25787782669067383,0.4824225902557373,-0.086819589138031,-0.37698590755462646,-0.23397308588027954,0.5346773862838745,0.7924524545669556,0.24459028244018555,-0.7794575095176697,0.10728573799133301,-0.28262758255004883,-0.36819398403167725,-0.010860979557037354,-0.792375922203064,-0.852663516998291,-0.4913349747657776,0.16459214687347412,-0.6609729528427124,-0.44593745470046997,-0.7571824789047241,0.3951096534729004,-0.19379281997680664,-0.4116476774215698,-0.5553703308105469,0.05177867412567139,-0.09287124872207642,0.1661015748977661,-0.4702169895172119,-0.8070304989814758,0.4671074151992798,-0.4232785701751709,-0.75438392162323,-0.29220110177993774,-0.03067106008529663,-0.39755958318710327,-0.5157351493835449,0.08709704875946045,-0.2304726243019104,0.23585772514343262,0.14651668071746826,0.05856037139892578,0.24072909355163574,0.5302377939224243,0.37006235122680664,0.8656936883926392,0.25218331813812256,-0.014966130256652832,0.6058577299118042,-0.4172133207321167,0.6154333353042603,-0.05778127908706665,-0.06501936912536621,0.5770018100738525,0.7459155321121216,-0.10500657558441162,0.026369690895080566,-0.6868088245391846,0.8426315784454346,-0.12171322107315063,0.7386192083358765,-0.8242091536521912,-0.5725759267807007,0.13053107261657715,0.7121251821517944,0.32523369789123535,0.1337568759918213,0.6347100734710693,0.1462777853012085,-0.6762166023254395,-0.7345279455184937,0.05372464656829834,0.933539628982544,0.6532301902770996,0.6497416496276855,-0.6741182804107666,0.0870969295501709,0.3756828308105469,-0.5973188877105713,0.1454240083694458,-0.023143768310546875,0.574982762336731,-0.6688946485519409,-0.7706407904624939,-0.21804535388946533,0.24122262001037598,-0.44952189922332764,-0.3078179359436035,-0.8851653337478638,0.3404097557067871,0.7648617029190063,0.3960304260253906,-0.06123775243759155,-0.29142194986343384,0.7176487445831299,0.29695725440979004,-0.13875967264175415,0.8331108093261719,-0.009259939193725586,-0.480343222618103,-0.6353579759597778,0.5142349004745483,0.4693777561187744,-0.7920823693275452,-0.7272753715515137,-0.7003669738769531,0.572750449180603,0.09907853603363037,-0.6669434309005737,-0.4386800527572632,-0.8321324586868286,-0.6157495975494385,-0.5856667757034302,-0.4250286817550659,0.5501856803894043,0.2610534429550171,-0.5635189414024353,-0.5837764143943787,0.620650053024292,0.02141404151916504,0.3377598524093628,-0.325015127658844,0.7471028566360474,-0.20543545484542847,-0.6068887710571289,0.5343691110610962,-0.3317183256149292,-0.07674390077590942,-0.7404415607452393,0.33698582649230957,0.4338645935058594,0.27750229835510254,-0.3705512285232544,-0.23689031600952148,-0.26737821102142334,0.5310636758804321,-0.36513614654541016,-0.3972463607788086,0.42351770401000977,-0.2253318428993225,-0.7090915441513062,-0.18187886476516724,-0.8699928522109985,-0.11674612760543823,-0.19761323928833008,-0.07492721080780029,-0.2949131727218628,0.28021836280822754,-0.015442311763763428,0.19626247882843018,-0.7341192960739136,0.5032062530517578,-0.5811280012130737,-0.17463165521621704,0.52288818359375,0.31458353996276855,-0.8213515877723694,-0.08391255140304565,-0.5303618907928467,-0.8900136351585388,0.6717146635055542,0.14022982120513916,0.21990180015563965,-0.8897739052772522,0.10763430595397949,0.7615522146224976,0.6516987085342407,0.37727582454681396,0.12976491451263428,0.042937636375427246,0.6218189001083374,0.12570655345916748,-0.9828228950500488,0.5153110027313232,-0.5684564113616943,-0.6842172145843506,-0.13276779651641846,-0.22385495901107788,0.4934840202331543,0.2010965347290039,-0.011380970478057861,-0.2916409969329834,0.18152689933776855,-0.6312974095344543,0.0029442310333251953,-0.4282035231590271,-0.6508468389511108,0.6399506330490112,-0.07262450456619263,0.17780601978302002,0.6079877614974976,0.22734642028808594,0.16140854358673096,0.5586055517196655,-0.4683504104614258,-0.25242090225219727,-0.9675092697143555,-0.10290300846099854,-0.41953152418136597,-0.7533800601959229,-0.5169108510017395,-0.5113542079925537,-0.5334461331367493,0.5728708505630493,-0.2801510691642761,0.3629657030105591,0.16609203815460205,0.3762122392654419,-0.5935177803039551,0.02637791633605957,0.29465460777282715,-0.7189089059829712,-0.16478151082992554,0.3562939167022705,-0.14199990034103394,-0.28814512491226196,0.3603188991546631,0.221716046333313,-0.15234357118606567,-0.2377852201461792,0.4536851644515991,-0.9218974113464355,-0.418895959854126,-0.16621804237365723,0.3747216463088989,0.4013831615447998,-0.84328693151474,0.49323570728302,0.7243915796279907,0.23863959312438965,-0.4861128330230713,-0.7119942903518677,-0.3626752495765686,-0.2673431634902954,-0.23725789785385132,0.6952556371688843,-0.16030573844909668,0.34612441062927246,0.6002991199493408,0.11603498458862305,0.6828718185424805,0.08690249919891357,-0.33332157135009766,0.2925471067428589,-0.7222188711166382,-0.6826316118240356,-0.6199630498886108,-0.7793983221054077,0.3369215726852417,0.0379183292388916,-0.65546053647995,-0.3021591901779175,0.5308289527893066,0.08044040203094482,0.49783599376678467,0.23346328735351562,-0.2644556760787964,0.6741465330123901,-0.7535872459411621,0.07428932189941406,-0.5179784297943115,-0.027370452880859375,0.023204803466796875,0.49491310119628906,-0.0029909610748291016,0.6047749519348145,-0.2132917046546936,-0.9388202428817749,-0.5227653384208679,0.3889230489730835,-0.85882568359375,-0.34094375371932983,0.47654640674591064,0.15719079971313477,-0.2255551815032959,-0.7745001316070557,0.707060694694519,0.63609778881073,-0.1253376007080078,-0.10125011205673218,-0.6817535758018494,-0.7882760167121887,0.687131404876709,0.6318788528442383,-0.14014554023742676,0.2353663444519043,-0.4294853210449219,0.33249175548553467,0.5081757307052612,-0.10242420434951782,0.6601485013961792,0.2537344694137573,0.5973644256591797,0.4297987222671509,-0.7866427302360535,-0.04801863431930542,-0.0808035135269165,-0.6309686899185181,0.5447826385498047,-0.9240662455558777,-0.15962845087051392,-0.1760270595550537,-0.7293241620063782,-0.16233158111572266,-0.2818905711174011,0.6151728630065918,0.41127610206604004,-0.8263552784919739,-0.8646678924560547,-0.13108253479003906,0.3187685012817383,0.7000200748443604,0.0164639949798584,0.29695165157318115,0.006944537162780762,0.7645106315612793,-0.5139163732528687,0.4309349060058594,0.5666035413742065,0.7246074676513672,0.36229610443115234,0.3981649875640869,-0.5410032868385315,-0.21573519706726074,-0.6137086153030396,-0.1972401738166809,0.5645110607147217,0.3329819440841675,0.10008502006530762,-0.6951494216918945,-0.43654870986938477,-0.029866337776184082,-0.6496211290359497,0.11447131633758545,-0.16184836626052856,0.5720885992050171,0.37112927436828613,-0.27812808752059937,0.370316743850708,-0.6635116338729858,0.15267443656921387,-0.029749512672424316,-0.45238232612609863,0.39295923709869385,-0.5839367508888245,-0.7618833780288696,-0.42413777112960815,-0.3782479166984558,0.2629915475845337,0.5802565813064575,-0.5884752869606018,0.040558576583862305,0.1262437105178833,-0.575334906578064,-0.42447447776794434,0.0807497501373291,-0.625606894493103,-0.6686093807220459,0.9066455364227295,-0.3356233835220337,-0.0924835205078125,-0.786212146282196,-0.18098092079162598,-0.6694820523262024,0.48209333419799805,-0.07748132944107056,-0.5999360084533691,-0.06926143169403076,0.6225675344467163,-0.6458064317703247,0.09967279434204102,0.25779497623443604,-0.9039398431777954,-0.033811748027801514,-0.8049741387367249,0.5625858306884766,-0.5135842561721802,-0.6877396106719971,-0.7964392304420471,-0.6471284627914429,-0.6059861779212952,-0.06414908170700073,0.725502610206604,-0.9024286866188049,0.07254886627197266,0.2723841667175293,-0.4194885492324829,0.2961775064468384,0.5337451696395874,0.0381779670715332,0.43515193462371826,-0.114357590675354,0.014411449432373047,0.10302495956420898,0.8668642044067383,-0.7807592153549194,-0.6701881289482117,0.2920573949813843,0.4154547452926636,0.11043453216552734,-0.502244770526886,0.3002229928970337,-0.043491363525390625,0.7503646612167358,0.6956486701965332,-0.18898993730545044,0.28856348991394043,-0.4294288754463196,0.6089361906051636,-0.7073721885681152,-0.6593343019485474,-0.021117448806762695,0.2898799180984497,0.49022161960601807,0.13165104389190674,0.6326069831848145,-0.48073166608810425,-0.009062469005584717,0.6508219242095947,0.5865136384963989,-0.7967535257339478,0.7897019386291504,-0.2956530451774597,0.6590433120727539,-0.8538901209831238,-0.022019267082214355,0.3397749662399292,-0.2565297484397888,0.27325546741485596,-0.5526955723762512,-0.23470908403396606,-0.8630821704864502,0.07691836357116699,-0.7402366995811462,0.16817426681518555,0.1897345781326294,-0.1684250831604004,0.7011504173278809,0.8888635635375977,-0.2941403388977051,-0.7765242457389832,-0.4136708378791809,0.31407809257507324,-0.5476827621459961,0.6910614967346191,0.19965648651123047,-0.17304515838623047,0.7260528802871704,-0.17678719758987427,0.12077343463897705,-0.16635966300964355,0.12702226638793945,-0.20442241430282593,-0.42827683687210083,-0.8962536454200745,-0.8377790451049805,-0.8630770444869995,0.21209383010864258,-0.5667524337768555,0.09730291366577148,-0.28029340505599976,0.3648620843887329,0.03540050983428955,-0.7946270704269409,-0.5217798948287964,-0.4947160482406616,0.5386962890625,0.7530269622802734,-0.5339773893356323,0.5802865028381348,0.5272126197814941,0.6582851409912109,0.8496226072311401,0.2772592306137085,0.4191148281097412,-0.4921623468399048,-0.8681201338768005,-0.4710320830345154,-0.3263999819755554,0.04915440082550049,0.8200975656509399,-0.20329439640045166,0.43801677227020264,-0.255382239818573,0.7253463268280029,0.47716307640075684,0.5475219488143921,-0.8071653246879578,0.6794948577880859,-0.05179798603057861,0.667273998260498,0.11653530597686768,-0.5754878520965576,-0.305414080619812,0.05346369743347168,-0.8876285552978516,0.20491087436676025,-0.3695716857910156,0.17216980457305908,-0.2749747633934021,0.3815131187438965,-0.7884074449539185,-0.29666662216186523,-0.5756144523620605,0.20262205600738525,-0.7307916879653931,0.6557509899139404,-0.4645770788192749,-0.002635776996612549,-0.5358858108520508,-0.8720971941947937,0.05550563335418701,0.16701114177703857,-0.43636250495910645,-0.8404421806335449,0.7587054967880249,-0.294952392578125,0.22383511066436768,0.09521663188934326,0.1818317174911499,0.06577181816101074,0.789960503578186,-0.3010910153388977,-0.6487617492675781,-0.49982786178588867,-0.8973351120948792,0.8430663347244263,-0.15471220016479492,-0.2848702669143677,0.8240034580230713,-0.3024899959564209,0.2272857427597046,-0.5339527130126953,0.08025431632995605,0.8382010459899902,0.6984308958053589,0.38414525985717773,0.5420364141464233,0.7932159900665283,-0.49924683570861816,0.8782563209533691,0.4457648992538452,-0.2241060733795166,-0.7410836219787598,-0.6719107627868652,0.7484290599822998,0.7274173498153687,0.35868728160858154,0.7048022747039795,-0.4841976761817932,-0.8053690195083618,-0.7418210506439209,0.4018418788909912,-0.33365052938461304,0.11907351016998291,-0.13922792673110962,0.7251008749008179,-0.3168490529060364,-0.6608610153198242,-0.705857515335083,0.6781139373779297,-0.7509331703186035,0.7335315942764282,-0.6696317195892334,-0.8821465969085693,0.23653185367584229,0.029491186141967773,-0.30316072702407837,0.6862117052078247,0.10377073287963867,0.4594075679779053,-0.7333494424819946,-0.6865582466125488,0.535682201385498,0.5624475479125977,-0.6699479222297668,-0.24953967332839966,-0.028571605682373047,0.19537663459777832,0.7766827344894409,0.1081702709197998,-0.2880083918571472,0.3604391813278198,0.31237077713012695,0.21576917171478271,-0.42299121618270874,0.25382983684539795,-0.20236361026763916,0.7598876953125,0.05241513252258301,-0.5578515529632568,-0.4326593279838562,-0.10611540079116821,-0.7901633977890015,0.5143440961837769,-0.34992361068725586,-0.2757556438446045,0.6492767333984375,0.12069320678710938,0.6057513952255249,0.35668766498565674,0.016524910926818848,-0.12774419784545898,0.23639428615570068,0.030873894691467285,0.6287248134613037,-0.37372052669525146,-0.21677809953689575,-0.6178107261657715,0.5245718955993652,-0.5586210489273071,0.1013491153717041,-0.3090817332267761,-0.29632580280303955,-0.9401047825813293,0.708054780960083,0.5364642143249512,-0.14445173740386963,-0.3684222102165222,-0.3774225115776062,-0.10737723112106323,-0.9374958276748657,-0.5875704288482666,-0.129971444606781,-0.7027816772460938,0.6651499271392822,0.19190645217895508,-0.40128231048583984,0.6761832237243652,0.506044864654541,-0.7751840353012085,-0.8993926644325256,0.649000883102417,-0.14027941226959229,-0.09793442487716675,-0.5767320990562439,-0.20198875665664673,-0.43165963888168335,0.38574039936065674,-0.5648298859596252,0.6052114963531494,0.1196753978729248,0.5270841121673584,-0.6164059638977051,-0.5625467300415039,0.08602070808410645,0.6382389068603516,-0.567017138004303,0.3396724462509155,0.052721500396728516,-0.30938273668289185,-0.49373114109039307,-0.030839264392852783,-0.9342073202133179,-0.6195305585861206,-0.030531346797943115,-0.8865796327590942,-0.43913352489471436,0.1451435089111328,0.2815408706665039,0.20167076587677002,0.42466306686401367,0.44220590591430664,0.6262564659118652,0.05435526371002197,0.017705678939819336,0.06545507907867432,-0.5763076543807983,0.1771167516708374,-0.7586934566497803,-0.14919066429138184,-0.48794496059417725,0.34785616397857666,-0.28255337476730347,0.1661616563796997,-0.038836002349853516,-0.06013846397399902,-0.06888550519943237,0.569717526435852,-0.35158395767211914,0.7693475484848022,0.4482780694961548,0.4119013547897339,0.6152288913726807,-0.6575369834899902,0.07045769691467285,-0.24574428796768188,-0.2127363681793213,-0.642521858215332,0.6602941751480103,-0.10337650775909424,0.5669451951980591,-0.22888779640197754,0.5670102834701538,0.7029656171798706,0.2172485589981079,-0.7568041682243347,0.21909010410308838,0.11009979248046875,-0.3056289553642273,-0.871559202671051,-0.5267878770828247,0.5375351905822754,0.15340757369995117,-0.04165750741958618,0.4005700349807739,0.48421406745910645,0.3675968647003174,-0.11753559112548828,-0.34360259771347046,0.8491748571395874,-0.8954890966415405,0.6435339450836182,-0.5756016969680786,0.535149097442627,-0.20173782110214233,-0.8170523643493652,-0.0924789309501648,-0.6453306078910828,-0.7552393078804016,0.48361659049987793,-0.49485576152801514,-0.8217349052429199,-0.03544348478317261,0.6275779008865356,-0.47032272815704346,0.7521963119506836,0.7452400922775269,0.2370814085006714,0.2769559621810913,0.7341569662094116,-0.2742847800254822,0.13493609428405762,0.16222608089447021,-0.09355020523071289,-0.17531418800354004,-0.32292068004608154,0.6715317964553833,0.40609025955200195,-0.19853222370147705,-0.3439425826072693,-0.8328218460083008,0.35963165760040283,-0.19113445281982422,-0.16231828927993774,0.6780189275741577,0.7687554359436035,-0.34360355138778687,-0.09344130754470825,0.1608266830444336,0.15525949001312256,0.15709519386291504,-0.37777721881866455,-0.3138383626937866,-0.5885933637619019,-0.27457380294799805,-0.3750169277191162,0.4225316047668457,-0.15780091285705566,0.6018468141555786,0.011179447174072266,-0.5499817132949829,-0.5006510019302368,0.016957521438598633,-0.6448961496353149,0.04360198974609375,-0.8971595764160156,-0.45228099822998047,0.6151726245880127,-0.0590246319770813,0.7200591564178467,-0.22227168083190918,-0.5208902359008789,-0.7329466342926025,-0.9177910089492798,0.5328115224838257,-0.4267297387123108,0.192693829536438,-0.44559967517852783,-0.5730335116386414,-0.03327310085296631,-0.37660276889801025,-0.2996700406074524,0.7662034034729004,0.5529682636260986,0.6886857748031616,-0.7341799139976501,0.4776122570037842,-0.6375733613967896,-0.3078833818435669,0.7780038118362427,0.09717214107513428,0.06606197357177734,0.5789903402328491,0.01934194564819336,0.34318530559539795,-0.25994718074798584,-0.7577793598175049,-0.13933318853378296,0.7251311540603638,0.4348496198654175,0.2806035280227661,0.3568161725997925,-0.0025913119316101074,0.715093731880188,0.024855375289916992,-0.12204962968826294,0.23264861106872559,-0.7710949182510376,-0.37011128664016724,-0.8059343099594116,-0.8088134527206421,-0.3124353885650635,0.7645291090011597,-0.8438757658004761,-0.3516860604286194,-0.20953118801116943,-0.6569194197654724,0.628847599029541,0.09762966632843018,0.11511623859405518,-0.8827627301216125,-0.5741105079650879,0.778501033782959,0.8282887935638428,-0.6029022336006165,0.8486788272857666,0.7035008668899536,0.6534618139266968,0.08685803413391113,0.23073840141296387,-0.6363294720649719,-0.5446085333824158,0.26511847972869873,-0.07164716720581055,-0.18625688552856445,0.6852946281433105,0.8388955593109131,-0.6287199258804321,0.26004457473754883,-0.6471115350723267,0.4736098051071167,0.7075510025024414,0.06627380847930908,-0.8633893728256226,-0.8079087138175964,0.4153714179992676,0.6997333765029907,-0.9196101427078247,-0.3016819357872009,0.3980138301849365,0.0470198392868042,-0.5513256788253784,-0.6669595241546631,0.2880854606628418,0.45059382915496826,0.03921794891357422,-0.5154173374176025,-0.7541750073432922,0.8174730539321899,-0.8283740282058716,0.4919717311859131,-0.04124802350997925,-0.4702434539794922,-0.9178467988967896,0.6256541013717651,0.5609737634658813,-0.31860780715942383,0.4799896478652954,0.5147558450698853,-0.2955389618873596,0.5402170419692993,0.6678140163421631,-0.09801197052001953,-0.835694432258606,0.5374096632003784,-0.02739095687866211,0.3261009454727173,0.4367436170578003,-0.29326945543289185,-0.5689533948898315,-0.892059326171875,0.3371506929397583,-0.6994631290435791,-0.08961248397827148,0.039035916328430176,0.08493220806121826,-0.43954718112945557,-0.4275319576263428,0.19619989395141602,0.4797687530517578,0.18320178985595703,-0.939007580280304,-0.7589237093925476,-0.7383707761764526,0.30630016326904297,0.037061452865600586,-0.35764575004577637,0.47618210315704346,0.3567873239517212,-0.3839799165725708,0.3572375774383545,0.7089698314666748,0.03113722801208496,0.5424844026565552,-0.6259745359420776,0.45481181144714355,-0.42114681005477905,0.15513873100280762,-0.2819960117340088,0.033652663230895996,0.08368790149688721,-0.16951489448547363,-0.5582273602485657,0.32805943489074707,-0.5582444667816162,-0.43679237365722656,-0.7295832633972168,0.0032196044921875,0.4369499683380127,0.2842843532562256,-0.08594691753387451,-0.7442883253097534,-0.23354893922805786,0.37491941452026367,0.7360103130340576,0.10274231433868408,-0.6980899572372437,0.1653740406036377,-0.6248283982276917,0.19002091884613037,-0.0492708683013916,-0.06107240915298462,0.6874294281005859,-0.6079043745994568,-0.24647855758666992,-0.46640563011169434,-0.5768868923187256,-0.399478554725647,-0.5869559645652771,0.19899332523345947,-0.3762560486793518,-0.5891613960266113,-0.33756518363952637,0.26285314559936523,-0.530372142791748,-0.27924126386642456,-0.5239965915679932,0.3652966022491455,0.47294819355010986,0.15444636344909668,0.38030874729156494,-0.023910582065582275,0.20756936073303223,0.29459822177886963,-0.7840714454650879,-0.48485589027404785,0.48282408714294434,0.34059226512908936,0.6099933385848999,0.5302929878234863,0.08968424797058105,0.7819544076919556,-0.3340284824371338,-0.7523434162139893,0.2746340036392212,-0.8336145877838135,0.5398343801498413,-0.4624750018119812,0.0857163667678833,-0.5862743258476257,-0.31985437870025635,0.5340029001235962,-0.36179041862487793,-0.6033885478973389,-0.46099305152893066,0.2800241708755493,0.36407649517059326,-0.5407551527023315,-0.6485798358917236,-0.2983453869819641,0.00803673267364502,-0.22021621465682983,0.3128095865249634,0.11202526092529297,-0.4364868402481079,0.1158604621887207,-0.10963606834411621,0.7266788482666016,-0.40841931104660034,-0.9449425935745239,-0.45355331897735596,0.1942310333251953,-0.20134413242340088,0.7107024192810059,-0.8819012641906738,-0.18581384420394897,-0.8791656494140625,0.6332340240478516,-0.11812055110931396,-0.5005831122398376,0.2975655794143677,-0.1486467719078064,0.6248310804367065,-0.28161942958831787,0.6573164463043213,0.4233437776565552,0.059651970863342285,0.22614896297454834,-0.22680753469467163,0.1988457441329956,0.41606569290161133,0.8067227602005005,0.7378394603729248,-0.6136921048164368,-0.40045565366744995,-0.00763779878616333,-0.6866317987442017,0.23975729942321777,-0.3923584222793579,0.03819751739501953,-0.6164488792419434,-0.7441877126693726,0.07284903526306152,0.7365338802337646,0.12343049049377441,-0.38924020528793335,0.22790753841400146,0.4000643491744995,-0.6618870496749878,0.7786879539489746,0.0052394866943359375,-0.25073742866516113,0.19409894943237305,-0.9445402026176453,-0.23755180835723877,-0.7177960872650146,-0.468300461769104,0.7801356315612793,-0.4319324493408203,-0.9326015114784241,-0.7004142999649048,-0.8298754692077637,-0.2593400478363037,0.09309983253479004,-0.4129844903945923,0.14811468124389648,0.7092193365097046,0.3537635803222656,-0.1964561939239502,0.5639108419418335,0.5440337657928467,0.2934105396270752,0.04621589183807373,-0.2709888815879822,-0.24946337938308716,-0.27078884840011597,0.06246912479400635,-0.2722594141960144,0.3812885284423828,0.8405227661132812,-0.4956371784210205,0.3987882137298584,-0.9195713996887207,-0.7364514470100403,-0.9366045594215393,0.1288543939590454,-0.9143577814102173,0.6558475494384766,-0.5781843066215515,0.136602520942688,-0.4952736496925354,-0.6652023792266846,0.19373035430908203,-0.613538384437561,-0.18244433403015137,-0.20954138040542603,0.5384290218353271,-0.8004982471466064,-0.3033692240715027,-0.2943503260612488,-0.5557923316955566,-0.5653681755065918,-0.8927910923957825,-0.3837336301803589,-0.830507218837738,0.12269032001495361,-0.16684836149215698,0.5309127569198608,-0.8197742700576782,-0.6429765224456787,0.6226087808609009,0.6703002452850342,0.11345493793487549,0.16100859642028809,0.7748486995697021,0.4556335210800171,-0.47563421726226807,-0.36152297258377075,0.36995410919189453,-0.7887363433837891,-0.16449350118637085,-0.6137184500694275,-0.5016837120056152,0.10200285911560059,0.22348928451538086,-0.7639398574829102,0.6345672607421875,0.26102304458618164,-0.5473517179489136,0.6860589981079102,0.09657931327819824,0.7999863624572754,0.5335493087768555,-0.30114299058914185,0.4139261245727539,-0.8683497905731201,-0.5919357538223267,-0.814287543296814,-0.10294783115386963,0.8372523784637451,0.46291041374206543,-0.21335172653198242,0.6154114007949829,0.3047490119934082,-0.7772767543792725,-0.6203981041908264,0.7913137674331665,0.650179386138916,-0.6158548593521118,-0.04410463571548462,0.3012329339981079,0.7729238271713257,-0.05256009101867676,0.7013552188873291,0.17123401165008545,-0.7394021153450012,-0.39879274368286133,-0.8674229383468628,0.05991947650909424,-0.3040373921394348,0.13265573978424072,-0.4173099994659424,0.5481619834899902,0.6974018812179565,0.46051645278930664,-0.5284460783004761,0.7922353744506836,0.3695828914642334,0.284055233001709,0.22633707523345947,-0.6252299547195435,-0.14405852556228638,-0.16657918691635132,-0.816101610660553,0.21990478038787842,-0.3079301118850708,-0.09235131740570068,-0.4217991232872009,0.7890939712524414,0.7192447185516357,-0.6103320121765137,0.7553296089172363,-0.629240870475769,-0.8245372772216797,-0.25171881914138794,-0.9043301939964294,0.3511662483215332,-0.4088238477706909,-0.6545343399047852,-0.3867150545120239,0.40885698795318604,-0.22252893447875977,-0.6561257243156433,0.7017552852630615,-0.6969218254089355,0.1423802375793457,0.2765122652053833,0.03726911544799805,0.30112791061401367,0.7144010066986084,0.016045451164245605,0.2159186601638794,0.2125098705291748,0.811009407043457,-0.7692996263504028,0.4433695077896118,0.10422110557556152,0.16408967971801758,0.8069503307342529,0.17138659954071045,-0.7120590209960938,0.7288355827331543,-0.015415310859680176,0.026434898376464844,-0.4167695641517639,-0.6635521054267883,0.18719637393951416,-0.18709218502044678,-0.6618489027023315,0.7616170644760132,0.16986560821533203,0.013761162757873535,0.3380744457244873,0.10111165046691895,0.44907236099243164,0.5656576156616211,-0.39110779762268066,-0.319905161857605,0.05413222312927246,-0.5717562437057495,-0.40214526653289795,0.17803537845611572,-0.2882691025733948,0.25484681129455566,-0.19180655479431152,0.15668535232543945,0.0502316951751709,-0.7758058309555054,0.04725766181945801,0.022930383682250977,0.1803799867630005,-0.168767511844635,-0.02267158031463623,-0.6854291558265686,0.7063637971878052,-0.5165756940841675,-0.28876638412475586,-0.051017940044403076,0.5377517938613892,0.3199598789215088,-0.15750038623809814,-0.324320912361145,0.2787916660308838,0.33312344551086426,-0.720147967338562,0.3895244598388672,0.16092705726623535,0.7953312397003174,0.14112114906311035,-0.18668055534362793,-0.5657427906990051,-0.40673136711120605,-0.5690852403640747,-0.21424567699432373,0.6273406744003296,0.05796337127685547,0.40786099433898926,-0.07225161790847778,0.34176743030548096,0.5227187871932983,-0.45850038528442383,0.6607296466827393,-0.4257194399833679,-0.8739741444587708,-0.33240288496017456,0.5859774351119995,-0.6016499996185303,0.5955371856689453,-0.22994178533554077,-0.8009346723556519,-0.21195149421691895,-0.3924275040626526,-0.20078974962234497,-0.12259805202484131,0.40179431438446045,-0.6836585998535156,0.7921819686889648,-0.12074047327041626,0.7537986040115356,-0.688123345375061,-0.0027270913124084473,-0.41998499631881714,0.29701220989227295,-0.37864547967910767,-0.6198004484176636,-0.43227672576904297,0.3618285655975342,0.27102577686309814,-0.5460665225982666,-0.7637482285499573,-0.6029465198516846,0.8072183132171631,-0.6770535707473755,0.05519461631774902,-0.2527748942375183,0.4850616455078125,-0.5447525978088379,0.26238489151000977,0.23432278633117676,0.6062169075012207,0.6243470907211304,0.3773707151412964,0.6733822822570801,-0.9094465970993042,-0.7190369963645935,0.6509355306625366,-0.44544458389282227,-0.5828168392181396,-0.9362396001815796,0.2845027446746826,-0.644913911819458,-0.9531518816947937,-0.5455138683319092,-0.48086267709732056,0.5364513397216797,-0.5273623466491699,-0.2493760585784912